%YAML:1.0
---
peopledetect: !!opencv-object-detector-hog
   winSize: [ 96, 160 ]
   blockSize: [ 16, 16 ]
   blockStride: [ 8, 8 ]
   cellSize: [ 8, 8 ]
   nbins: 9
   derivAperture: 1
   winSigma: 4.
   histogramNormType: 0
   L2HysThreshold: 0.20000000000000001
   gammaCorrection: 1
   nlevels: 64
   signedGradient: 0
   SVMDetector: [ -8.59102438e-05, -0.0259679519, -0.0227462091,
       0.0117786089, 0.0217817407, -0.00991500076, -0.0101294946,
       -0.00278588664, 0.0189628582, -0.0207483023, -0.0067436602,
       0.010338177, -0.00548223313, -0.007747008, -0.0112883411,
       -0.00845386554, 0.0119417347, 0.0199894626, -0.0270091631,
       -0.0281027518, -0.0276054237, -0.0157148223, -0.00397733925,
       -0.00628420245, 0.0113880103, 0.0143900961, 0.0157273822,
       0.000568506017, 0.011577893, -0.00252437918, -0.0121864006,
       -0.00373458583, -0.0134100551, 0.0187162422, 0.0198204294,
       0.0137573546, 0.00978117529, -0.00144888449, 0.0015266994,
       -0.00597747928, -0.00586488005, 0.00497353915, -0.00653238595,
       -0.0140461856, 0.0320396535, -0.00325655658, -0.0108155599,
       0.000474688946, -0.00967317168, 0.0317736752, 0.00912879035,
       -0.00453932257, -0.0117099574, 0.00144818216, 0.000415944494,
       -0.00803918019, 0.00590949506, 0.000677597185, 0.0199048389,
       0.016597461, 0.0129974447, -0.00991442427, 0.00498851761,
       0.0109421182, -0.00824045017, -0.0157039911, 0.0357491411,
       0.0620633662, 0.0129042407, -0.00262085767, 0.00376207428,
       -0.00697251549, 0.0129533093, -0.0393537171, -0.00334781944,
       -0.00530576613, 0.00638103811, -0.012554354, 0.00414228905,
       0.022561986, 0.0148596307, 0.0158533398, -0.0153553747,
       -0.00306780729, -0.00705141807, -0.00883091241, 0.00686690863,
       0.00987449288, 0.000531844853, 0.00985879358, 0.0254450887,
       0.00769180665, 0.00464005908, 0.00151731714, -2.70377059e-05,
       0.0039345352, -0.0118858246, 0.0181763303, -0.00346725085,
       0.0246950742, 0.0248408411, 0.0243578367, 0.00348248798,
       -0.0179552846, -0.00936771277, -0.0175522119, 0.0125456695,
       -0.00452988083, 0.0385097675, 0.0136752538, -0.0027931144,
       -0.014185424, 0.00215700874, -0.0241254382, -0.0327318385,
       -0.0275277812, 0.00631342269, 0.00664039841, 0.00770465937,
       -0.00854098983, -0.00548275281, 0.0240420569, -0.0270642582,
       -0.0342662707, -0.0148787163, -0.000953459006, 0.0137889255,
       0.0211360194, -0.00206855731, -0.000752179709, -0.0307031889,
       0.00161313859, -0.0131563842, -0.0259576142, -0.0197777152,
       0.00208229711, 0.0269052144, -0.0098122498, 0.0248044692,
       -0.0236041863, 0.0110067315, -0.0219823644, 0.00318858842,
       -0.00791115966, 0.00808574818, -0.00548412185, 0.00151446159,
       -0.00453210855, 0.0176998358, -0.0357137956, -0.00576961879,
       0.011758429, 0.0149771571, 0.00797133613, -0.020307513,
       0.0237726811, -0.0193537418, 0.0100400876, -0.0267935824,
       0.00186565553, 0.0246474575, 0.00664739916, -0.0151674999,
       0.00281567243, -0.00427715387, -0.0117329853, -0.0283873789,
       -0.00802718569, -0.0123242727, -0.00199850416, 0.010302918,
       0.0108819418, 0.00158816832, 0.00751304859, -0.0440217443,
       -0.0179415625, 0.00623194315, 0.0346005373, 0.015821293,
       -0.000309247029, -0.016588578, -0.0182112828, 0.00058529852,
       -0.00166971877, 0.0103197126, 0.0114838192, -0.0166575536,
       0.0033904803, -0.0153279109, -0.00732623879, 0.00650569191,
       -0.0303350762, -0.0460850447, 0.00816212874, -0.0186543558,
       -0.00394990202, 0.00655513722, -0.0144815892, -0.0169522017,
       -0.00927924272, -0.0154040866, -0.00962696038, -0.00152726623,
       0.0330862403, 0.0104219811, 0.00741662923, -0.0328299515,
       -0.0404237546, 0.00826503709, -0.0140550919, 0.0174333043,
       0.0178144313, -0.0106095793, -0.029426435, -0.00503878947,
       -0.0335420743, 0.0100878878, 0.0250645857, -0.0152990501,
       -0.0322013013, 0.00637903716, -0.0208706986, -0.0341773108,
       -0.00499706855, -0.0160301048, -0.0222675912, -0.00253253779,
       -0.00868332107, 0.00998978969, -0.0134747727, -0.0066037355,
       -0.0180336144, -0.0126110576, -0.0358809307, -0.0149973752,
       0.0233083572, -0.0256262477, 0.017083941, 0.0193328205,
       -0.00226652413, -0.0410978273, 0.00380255166, -0.00701306853,
       -0.014925411, 0.013021878, -0.00484716566, 0.023956567,
       -0.0128706424, -0.0303645507, -0.0410089903, -0.00106672558,
       -0.0161626358, -0.0107688103, -0.00272250036, 0.00694378931,
       0.0227427222, 0.0337566808, -0.00539212301, -0.0102739269,
       0.0238332096, -0.0124102198, 0.00328437565, 0.0189639125,
       -0.0250340253, -0.00350487116, 0.015013787, -0.0122683775,
       -0.00683734426, 0.0278202333, -0.0041845208, -0.00755334925,
       0.0255991686, -0.00480485009, -0.00689695543, -0.00742142042,
       -0.0168594047, 0.00232259138, 0.0228819456, 0.00416440377,
       -0.00148747931, 0.0293679945, -0.0213426054, -0.0251384024,
       0.00995321665, 0.00793913286, -0.0015945374, 0.0374866985,
       0.0102361105, -0.0076364628, 0.0160780698, -0.0183215626,
       0.0304059759, 0.0251943357, 0.0172955263, 0.00225306326,
       0.0162597299, -0.0200595744, 0.0309484079, 0.0150080612,
       -0.0122120595, 0.00451908354, 0.031107638, 0.0262316633,
       0.0161959957, 0.00505197933, 0.00795272738, -0.0158394463,
       0.0198730137, 0.0142186638, 0.0142208925, 0.00781050185,
       0.0132764513, -0.00475217775, 0.0257187784, -0.0215751342,
       -0.0111646736, 0.00727635715, 0.0131000113, 0.021920681,
       -0.00982477702, -0.0101528578, -0.00671919901, -0.00521509163,
       -0.011498522, 0.0479237847, 0.0209811125, -0.00781526603,
       0.0051077879, 0.0281747021, 0.0122866957, -0.0177008193,
       -0.00892444421, 0.019338401, 0.00795442797, 0.0241208207,
       -0.0333057642, -0.0194004215, -0.0436424837, -0.00934632495,
       -0.038451124, -0.00307425065, -0.00164756062, 0.0160805508,
       -0.00411259988, -0.00281740865, 0.0295658093, 0.00954934768,
       0.019807322, 0.00895046163, 0.00957580656, 0.013117604,
       -0.022582395, 0.00652926741, -0.0252589621, -0.0187797975,
       -0.0478348099, -0.0217649713, -0.0234798081, -0.0172269959,
       -0.0279896129, 0.00170890521, 0.026571488, -0.0220801234,
       0.00716521963, -0.0146919759, 0.016759403, -0.0148094688,
       0.0203280654, -0.00356470258, -0.00505546248, 0.0106678866,
       -0.034329012, -0.0169612281, 0.0207570996, -0.00939148851,
       -0.00666527776, 0.0101203499, -0.0312711634, -0.018021347,
       0.0115890941, -0.0286142025, 0.0309002511, -0.00192272617,
       0.00736138225, -0.00122568826, 0.000375890668, -0.00632961234,
       0.000689940527, 0.0119000887, -0.0343687125, 0.00594839826,
       -0.0153585561, -0.00456462894, -0.0296259541, -0.0100615183,
       -0.00100826274, -0.00510646822, 0.0216974486, 0.0100418627,
       -0.0111648394, 0.0438363366, 0.00788855273, -0.00186489371,
       0.0233634282, -0.00920011476, -0.0237001441, 0.0137660699,
       0.0188147016, -0.0166570898, 0.00539730769, -0.0223839283,
       -0.0196017884, 0.0413247272, 0.0115501555, 0.00261214585,
       0.0152136898, 0.00415951246, 0.00194913766, -0.00704246387,
       0.013663006, -0.0151544791, -0.000428939413, -0.00776671711,
       -0.0181025602, -0.0182619281, -0.000337837904, -0.0193663239,
       -0.0245451145, -0.0359848067, -0.0178865232, 0.0133357281,
       -0.0166062266, -0.0174583886, 0.0248111524, 0.000889022544,
       -0.0224339049, 0.0198897496, -0.00306216301, -0.0145780537,
       0.0257617999, 0.00586767076, -0.0216651261, 0.00791142322,
       -0.0148513252, 0.0134073496, -0.00770383747, 0.00822800677,
       0.0195705537, 0.0179042295, -0.0258313473, -0.0114779603,
       -0.00556811085, -0.00201432314, 0.000463604403, 0.00923508406,
       -0.019423075, -0.00190079422, 0.015575639, 0.007857522,
       -0.0135808056, 0.0149028189, -0.0211919416, 0.000387472624,
       -0.0632172748, -0.0197741333, -0.0112150153, -0.0183810126,
       -0.00580885122, -0.0513601378, 0.00525083579, -0.0143776108,
       0.0198488552, 0.0254690275, -0.00657084864, -0.00570203969,
       0.00646023871, -0.0256289952, -0.018553894, -0.00488490332,
       0.0155789005, 0.00923570711, -0.00353747862, -0.0499079041,
       -0.0179734882, 0.00785877462, 0.0108425058, -0.0170909222,
       0.00607016822, -0.0255444553, 0.0151396757, -0.0255796183,
       -0.0205192659, -0.0313892215, -0.00821471959, 0.000141106502,
       0.0161836911, 0.009056977, -0.0041442723, -0.00817685388,
       -0.0341768339, -0.0428235494, -0.0339028314, -0.0124256136,
       0.0256044827, 0.0114773437, -0.00215078332, 0.0239874292,
       0.0199241135, 0.0327625386, -0.012762974, -0.0234500412,
       0.00588783901, 0.0256602727, -0.027261639, -0.00486518862,
       -0.0156513005, -0.0304033887, 0.0355807953, -0.0117486371,
       -0.0211177859, 0.00476072915, -0.0018783093, -0.00105430919,
       0.0179215372, -0.00410061656, 0.0163421389, -0.0151203163,
       -0.0241613723, -0.0159957018, 0.0241689067, 0.00412552245,
       -0.0640403032, -0.0175397992, -0.0229421165, -0.0237964783,
       0.0167029183, -0.0192493238, 0.0126128215, 0.0358906277,
       -0.0300264452, -0.0119832661, -0.0045765643, 0.017109355,
       0.00809503626, 0.029840786, 0.00282399473, -0.00635706307,
       0.00754008908, 0.0042623179, -0.00192631246, 0.00142095576,
       -0.0046343538, 0.00874100719, -0.014005499, -0.0347271264,
       -0.0301847309, -0.0103393253, 0.00566310901, -0.0323821157,
       -0.00604324928, 0.0319668949, 0.0283415988, 0.0207405034,
       0.00375898392, 0.0342411511, 0.0375046171, -0.0119638536,
       0.00254436466, -0.00157350069, 0.0218255818, 0.039426513,
       -0.0149615239, -0.0171305481, 0.0132513838, 0.00604293542,
       0.0209920947, -0.00884615257, 0.00548516633, 0.0039933403,
       -0.0227286331, 0.000942462299, -0.00506299874, -0.0146567561,
       -0.0113610523, 0.00492800632, -0.0165968891, -0.00686027389,
       -0.0173351429, -0.00434941798, 0.00600605784, 0.0158619676,
       -0.0140531948, -0.00546298549, -0.00628300058, -0.00357971876,
       -0.00569160888, 0.00342116877, -0.0172685143, -0.00695218379,
       0.0150718363, 0.0224791486, 0.00942909066, 0.0217480995,
       -0.0276302621, -0.00242624455, 0.0096632177, 0.0230008271,
       0.0259560142, 0.0268511809, 0.0218796805, 0.00864199363,
       -0.00969396438, 0.0304638296, 0.00558006903, 0.00453748414,
       0.00572862802, 0.00839840155, 0.00955099333, -0.0179122444,
       0.00548610231, 0.0253894366, -0.00543940859, -0.0187802501,
       -0.00815980043, -0.0419939645, -0.00795742776, -0.0113734538,
       -0.00932304654, -0.0110365134, 0.0257264972, -0.00112589053,
       -0.000346559915, -0.00261951634, 0.026265692, -0.000788086676,
       0.0197420698, 0.0255789384, 0.0214010738, -0.00343606458,
       -0.018404888, -0.0223925449, -0.0054811053, -0.0191894099,
       -0.0189837813, -0.00371559453, 0.0059481631, -0.00650133053,
       -0.0153205916, 0.0138681466, 0.00396830309, 0.0135334097,
       -0.0167639032, 0.00120091403, -0.0311626066, -0.0130351847,
       -0.0255472194, 0.0121773668, 0.0274029598, 0.00283928169,
       0.00339996722, -0.0143112857, 0.0107281981, -0.0289165508,
       -0.0167837553, -0.0534450747, 0.0277462695, 0.0118814977,
       -0.00166190183, 0.0106094927, -0.00496519078, 0.0196840968,
       -0.0052910177, 0.00864625163, -0.00840184744, 0.0108906962,
       0.0236441437, -0.0237730891, 0.00591658801, -0.0203069896,
       0.0179629177, -0.00833092816, 0.00466834335, -0.00889651384,
       0.0333219804, -0.0430814512, -0.0266331863, 0.00793148298,
       -0.00359712169, 0.00429595588, -0.00946895033, 0.00754042529,
       -0.0204895232, 0.00310524553, 0.013227405, 0.0179588012,
       0.00740222912, 0.0216679815, 0.0208960436, -0.00215560058,
       -0.00138446793, -0.00906318706, 0.0186846647, -0.012816892,
       -0.0185055677, -0.0130797047, -0.000658999779, 0.00284473319,
       -0.0374134444, -0.0253168177, -0.0175977722, -0.00547252037,
       0.0310619213, 0.00322569441, -0.0317742676, -0.0137969879,
       0.0149378469, -0.00854576193, -0.0107966857, -0.00890017208,
       0.041046083, 0.0115901912, -0.0114503996, -0.0135830799,
       0.0083304178, 0.0332846418, -0.0141887218, -0.0220301189,
       -0.0382396206, 0.0204022024, 0.0232546385, -0.00256952853,
       -0.0201687906, 0.01628807, 0.0251151323, 0.000289358635,
       0.000268316537, -0.0300036184, 0.000102859514, 0.0133075397,
       -0.0261024367, -0.0409536436, -0.0270289499, 0.0215427335,
       -0.00214587525, -0.00944462512, -0.0039167949, 0.0390535928,
       0.000869564537, -0.0374993384, -0.0262201987, -0.00302125956,
       -0.00765265292, 0.0102463057, -0.00743125472, -0.00899836235,
       0.00428501703, 0.0275387093, 0.00461389311, -0.00619134866,
       -0.0138157569, -0.0157624166, 0.0036517228, 0.00317564723,
       -0.00654166238, 0.0121534234, 0.014903564, 0.0147623057,
       0.00594646344, 0.00085011893, -0.0194713715, -0.0157278124,
       -0.00539823063, -0.00569012435, 0.0174458213, -0.011709814,
       -0.00446074642, 0.00809316896, 0.00281040673, -0.0273343939,
       0.0147047164, 0.00236769766, 0.00775515335, -0.0166313294,
       -0.0194522124, 0.00295863207, 0.00774798309, 0.0104565565,
       -0.00591576612, 0.0203382876, -0.00202920358, 0.000604364905,
       0.00229471247, 0.00739722513, -0.00952652842, -0.00353243481,
       -0.0120755238, -0.0100322152, -0.00650184648, -0.00676807202,
       -0.00210493384, 0.0212676227, -0.00271881651, 0.00411008857,
       -0.0245369077, 0.00110516907, 0.0112929521, 0.00551676285,
       -0.00311644515, 0.0297989324, 0.019683348, -0.036889337,
       -0.0124308495, -0.00818861276, -0.00117684447, 0.0135874422,
       0.0286259279, -0.00661878707, -0.0106776413, 0.0184073467,
       -0.00430304976, 0.00638986798, -0.00514741009, -0.00358578097,
       -0.0142401615, 0.0359815396, -0.0124384249, 0.0085003553,
       0.00830190815, -0.0255198609, -0.00913255941, -0.0257705376,
       -0.0108034508, 0.0279215258, 0.00231199735, 0.00775398081,
       0.0239643622, 0.0166816842, 0.0116778594, 0.00657650689,
       0.0158790536, -0.00716786087, 0.00427148445, 0.0123755457,
       0.0161446836, 0.0117667587, -0.00365432445, 0.00651624193,
       -0.0111703249, -0.0147086307, -0.0266153384, -0.00162659492,
       0.0268175602, 0.0156401899, 0.00119934592, 0.0116819786,
       0.00556242047, 0.0153434202, -0.00182164146, -0.0171596352,
       -0.0164051112, 0.0225473978, -0.00481871422, -0.0273819212,
       0.00302503025, -0.0067291325, -0.00657772692, 0.00305047981,
       -0.00894258451, -0.0124433953, 0.0360360928, -0.0131519046,
       -0.00111206225, -0.000158319803, -0.00458000181, 0.00230651442,
       0.00179852929, 0.00131329847, -0.000465015735, 0.0105371159,
       -0.0266550407, 0.0117489928, -0.00212791003, 0.00754070096,
       0.0124873053, 0.00288569136, 0.00629493268, -0.00504042907,
       0.0200388785, -0.0365103297, -0.0334631354, -0.00657452503,
       -0.00393365137, 0.0211260337, 0.0262778774, -0.0095901899,
       -0.0446155258, 0.02318375, -0.00454454776, 0.00241192407,
       0.0138765592, -0.0168216601, 0.00162539538, -0.0131971482,
       0.0315675214, -0.00632590801, -0.00573616987, -0.0416467711,
       -0.00581083586, -0.011571046, 0.0141823329, 0.0109097846,
       -0.0179321934, 0.0291091092, -0.0181890987, -0.0103804134,
       -0.0288595259, -0.00983320363, 0.00714648189, -0.013330495,
       0.022220308, 0.0194071028, 0.00968303252, -0.0316570029,
       0.0093960911, -0.00714222342, 0.00210937718, 0.0117236422,
       -0.0107282465, 0.0224671531, 0.0186154824, 0.0439294688,
       -0.0115267057, -0.000316447084, -0.00250288239, 0.000342577114,
       -0.0058334223, 0.0176294837, 0.023971593, -0.00996628776,
       0.00888471119, -0.00196296955, 0.0168306138, -0.0114986058,
       -0.0133859934, 0.000110851448, -0.0101467604, 0.0106984526,
       -0.0115230437, -0.0220475923, 0.00899827201, 0.000544727198,
       0.0129733151, 0.00662956713, 0.00855515432, -0.00703032874,
       -0.0128494669, 0.0027296918, 0.0333908349, 0.00373908505,
       0.00807720982, 0.0129517438, 0.00700931018, -0.0247643981,
       -0.00490963366, -0.0316793174, -0.0352503695, 0.000826191215,
       0.00777375372, 0.0119128963, 0.0181275439, 0.00544537045,
       -0.00853108522, -0.00773816044, 0.0068704118, -0.00667176396,
       -0.0196778104, 0.0230556261, -0.00605671853, -0.00489867944,
       0.00645705406, 0.0356301069, 0.0356852189, 0.00485779764,
       -0.00880674552, -0.0271418542, 0.00785375759, -0.0362709351,
       -0.0258268211, 0.00684078084, 0.0507913157, 0.0245227534,
       -0.00544791296, -0.0173218008, 0.00966923218, -0.0150954416,
       0.0106560839, -0.00201521791, 0.0292923339, 0.0328794867,
       0.0331428237, -0.00166061264, -0.00546507165, -0.0131894359,
       -0.0128198937, -0.027277125, -0.0270417519, 0.0239642262,
       0.028433444, 0.00998977106, 0.00303236721, -0.0133730574,
       0.00283076754, 0.0115307895, 0.0071465061, 0.00186566799,
       0.0112731112, 0.0271507017, -0.0066834637, 0.00469044503,
       -0.0152785713, -0.00473264186, 0.0124429017, -0.015908407,
       -0.0087986663, -0.0178985316, -0.000798262423, 0.00868885871,
       0.00393503997, -0.0179619975, 0.00196919823, 0.0219727531,
       0.0254271477, 0.00906685088, 0.0127285887, -0.0102211349,
       -0.0329633728, -0.00301893731, -0.000767578138, -0.00678451639,
       0.00961835124, -4.47036145e-05, 0.00577306096, -0.0115799988,
       -0.0454451181, 9.99972326e-05, -0.0043885028, -0.00252574263,
       0.0294043496, 0.00154197344, -0.00220012502, -0.00280093285,
       -0.0100032017, 0.00248622545, -0.00531065278, -0.0154222306,
       -0.0171655919, 0.024084216, -0.01543428, -0.00152067875,
       -0.00723177288, -0.00734684337, -0.0110306963, -0.0162269678,
       0.00265393127, -0.00460828608, 0.030548526, 0.00329717388,
       0.000845183153, 0.00523387501, 0.0138279162, -0.00651291478,
       -0.000561458291, -0.0164790452, -0.0143035492, 0.0223132204,
       -0.0334064215, 0.0115277041, 0.000466291967, 0.00523013016,
       -0.0071661179, 0.00463807676, -0.00343363453, 0.0336914137,
       0.0482527092, -0.0134572536, -7.16418799e-05, -0.00376991136,
       0.01420586, -0.0020117024, -0.0153344274, -0.0117600802,
       0.00428451784, -0.0168522745, -0.0266730506, -0.0186363608,
       -0.000731786073, -0.00775733916, -0.0239007752, 0.0228126645,
       0.00396504393, 0.00778565416, 0.0174558852, -0.0156111773,
       0.0351388492, 0.00993665401, 0.00460808678, 0.0124237044,
       -0.000415361807, 0.00180498359, -0.0248516891, -0.00736215059,
       0.00324025354, 0.0143253673, -0.00369617506, -0.0196357816,
       -0.0180544984, 0.00393475173, -0.00493372697, -0.00112630031,
       0.0259430036, 0.0127003556, -0.0124538997, -0.00539153256,
       -0.00217422238, 0.00823907461, -0.0140812658, -0.0126080066,
       -0.018243121, -0.00303574232, -0.0255902167, -0.0267646778,
       -0.0164592192, -0.016302662, -0.00341556291, 0.00591087993,
       0.0102617741, -0.0129324337, 0.0306757651, 0.0226061903,
       0.0325444639, -0.0090794526, -0.00258866115, -0.00457361899,
       -0.0195887852, -0.021593798, -0.0207234416, -0.0162039921,
       -0.00845935475, 0.00235583098, -0.0154363085, 0.00403048238,
       -0.015340765, -0.0213352833, -0.00776945706, -0.00154511712,
       0.0146674868, 7.32551998e-05, -0.005811546, 0.00962772872,
       0.0150688402, 0.0157848522, -0.014713618, 0.00560746156,
       0.0046218303, 0.0219089482, -0.0232809559, -0.0406659245,
       0.00714648608, 0.0153908441, -0.0121626686, -0.00137543329,
       0.00802379195, 0.0157584678, 0.017398417, 0.0486876667,
       0.0172718242, 0.00176519249, 0.018409431, 0.00606943667,
       -0.00185761531, 0.0261067078, -0.000897176738, 0.00162116007,
       0.0267360564, -0.0075603989, -0.0113947885, 0.00147246802,
       0.0063390159, -0.0343594179, 0.0184943769, 0.00757443812,
       0.0298807286, -0.0102462526, -0.00164204615, 0.0185423996,
       0.0296214335, -0.023864761, -0.0481948219, 0.00781308208,
       -0.00155129924, -0.0113336127, -0.00142074947, -0.0168793164,
       0.0405527391, 0.0375872627, -0.0219043456, -0.000387599663,
       0.0136795463, -0.00928531587, 0.00938421115, 0.00435235677,
       0.0266423728, 0.0211342406, 0.0120350327, -0.0106297825,
       0.00186748116, 0.0054262327, 0.00428778771, -0.0254935436,
       0.0181863047, 0.00710800476, 0.0168908015, 0.0303122066,
       -0.00878802035, 0.00530904857, 0.0175047815, 0.0105617186,
       0.0100327255, -0.00575098349, -0.00446602562, 0.0203230157,
       0.0343634151, 0.0078402739, 0.0064273146, -0.00253620604,
       0.0298547354, 0.0252556391, -0.00488445628, -0.00455112197,
       -0.0264271349, -0.0103862081, 0.0216616951, 0.0058895871,
       0.0269322861, 0.0213497616, 0.000715091126, 0.00632938463,
       -0.000596878759, -0.00680977991, 0.0262236409, -0.00243829191,
       0.00418402581, 0.00765075535, 0.00676457491, 0.0225976463,
       0.030272685, -0.00221171463, -0.0269160978, -0.0216550119,
       0.0182708856, -0.0189812724, -0.00189275004, 0.0255247988,
       -0.00700346055, 0.000818592729, 0.00813767686, -0.000425303588,
       0.0060180556, 0.0185658764, -0.0434376262, -0.00244263001,
       0.01369067, 0.01252524, -0.00593740633, 0.00123145932,
       0.00228573475, 0.00418363372, -0.0272477455, 0.00319670816,
       -0.00357555668, 0.0142951142, 0.00226167799, 0.00507373409,
       0.00296559394, 0.00425571948, 0.00206978293, 0.0460828766,
       -0.00779290637, -0.0106970677, 0.0186869893, 0.0128659252,
       -5.63254398e-05, -0.00463468814, 0.0233198069, 0.00859044027,
       0.000229548808, -0.0083843004, 0.00481555657, 0.0081433123,
       0.0198374633, -0.00726314634, -0.000580977823, 0.0189015362,
       0.0118562281, 0.0104225446, 0.00844771788, -0.00926787779,
       0.0258045308, -0.00393978879, -0.00223746011, 0.00196591485,
       -0.00991582591, -0.0203179624, 0.0134271737, 0.00980967376,
       0.0167538356, 0.00480778283, 0.0275394022, -0.00825534109,
       0.00271764561, 0.0271042455, 0.00608186098, 0.0108834859,
       0.0157764368, 0.0239664465, 0.00881008338, 0.00786051061,
       0.00205105799, 0.028127823, 0.00775049347, -0.021653302,
       0.0104269814, -0.0142276743, -0.0199966598, 0.0122645274,
       -0.0103046121, 0.0211064517, 0.0170560367, 0.00367284799,
       -0.0144183272, -0.0105839344, 0.000711735687, -0.0457166731,
       -0.0199298374, -0.00423403364, 0.0166348629, -0.00958494376,
       -0.00649283966, -0.0172176864, 0.0165308062, -0.00139526231,
       -0.00913348421, -0.0119149471, -0.0112077231, 0.0275284573,
       0.0394500233, 0.0124550285, -0.0300665628, -0.000734035217,
       0.0277660564, -0.0496838093, -0.0344730057, 0.000736862828,
       0.0291666202, -0.00646998268, -0.0286049806, -0.0559663698,
       0.0404965729, 0.0179761127, -0.00487256888, -0.0210329778,
       0.00836849026, 0.0248943157, -0.0138423825, -0.0151836975,
       -0.0138041666, -0.00563794607, 0.00261980947, 0.00425854884,
       -0.0172608327, -0.0160914976, 0.0180497132, -0.0141233942,
       0.0130555518, -0.000928866735, 0.0231625903, 0.00896501355,
       -0.00425336743, -0.0273789242, 0.00802505482, -0.0259941146,
       0.0198959336, -0.0233839788, -0.0327392109, -0.0117765218,
       0.00837488193, 0.0182663482, 0.0178569108, 0.00872847438,
       -0.00220720284, 0.0191981718, 0.00238992507, 0.0058587743,
       0.00147833722, 0.000997479539, -0.018121412, -0.0294307023,
       -0.03484926, -0.00051991496, -0.017885806, 0.000510457729,
       -0.00731870998, 0.0157382507, -0.00399180083, -0.00735711958,
       -0.0124422796, 0.0186046064, 0.0209657829, 0.0206071604,
       0.000132261863, 0.00453752419, 0.00571723515, -0.00475060241,
       0.0113908108, 0.00119142898, -0.00840669405, -0.0105627086,
       -0.012502471, -0.00312835746, -0.01482879, 0.00215691002,
       -0.0175830945, -0.00323747285, 0.012382878, 0.0312328413,
       -0.0119193848, -0.0130578736, -0.00451261876, 0.00621392764,
       -0.00774301728, -0.000604891975, -0.00464897044, -0.0103127193,
       -0.0037975898, 0.00502308318, 0.0105681447, 0.00420752307,
       0.014182372, 0.0144316247, 0.000921619707, 0.0102153691,
       0.00273957895, 0.00677364878, -2.79601609e-05, 0.0319218002,
       0.0152535867, 0.0056792032, 0.02117645, -0.00211910717,
       -0.0246557035, -0.0111634769, 0.00960443355, -0.0189891849,
       0.0167823099, -0.0200270694, 0.0109818093, 0.00154626125,
       0.00292977854, -0.0100619458, -0.00592709705, 0.0142743643,
       -0.0175102782, 0.0345581286, -0.0111799343, 0.0199663378,
       0.00723901438, -0.0217512362, 0.00257971673, 0.00240476965,
       -0.00124339887, 0.019580055, 0.00951520167, -0.00788638555,
       -0.0202858075, 0.0149179054, -0.00160143827, 0.0172899421,
       0.0189247224, 0.0057381955, 0.00347020337, 0.0132638579,
       -0.0267009027, 0.011987756, 0.0159757715, -0.00628963299,
       0.0185323507, 0.0102235414, 0.0109443357, 0.0123183597,
       0.0195873063, 0.00456668297, 0.0146289207, 0.000174524044,
       0.023501996, 0.0284738261, 0.023939399, 0.0309266523,
       0.0179747418, -0.00537208701, -0.00845504925, 0.0143267494,
       -0.00908830669, 0.00797975995, 0.00747501571, 0.0195851512,
       0.00653653732, 0.016418701, 0.0149379093, -0.00369597645,
       0.0210765712, 0.0121960863, 0.00765870837, -0.00982299913,
       0.00107685372, -0.00475542806, 0.00526702497, 0.00571505027,
       -0.0233863071, -0.00565915415, 0.00546869123, 0.0150862047,
       0.00707828254, 0.0153707946, 0.024817165, 0.00980827771,
       -0.0049851113, 0.0102177411, 0.0227179453, -0.00861206837,
       -0.00521838246, -0.0115045672, -0.0092109656, -0.0186079219,
       -0.0263997111, 0.00921374187, 0.00126518845, 0.0335593484,
       0.00983925723, -0.00458367029, 0.00318826153, -0.00274158223,
       -0.0090367943, -0.0202799439, -0.00568233849, -0.0234982334,
       -0.028665565, -0.019221982, -0.00727398973, 0.0111089218,
       0.00886473153, 0.0114086187, 0.0355951078, 0.0180416722,
       -4.10830653e-05, -0.0127479043, -0.00384155731, 0.00899963174,
       0.00923528429, -0.0202913452, -0.00929699838, -0.0284425728,
       0.00814368948, -0.00941691361, 0.0130238701, -0.0018890996,
       0.0178100709, -0.00425437884, -0.0220723227, -0.00393105671,
       0.0150201805, 0.017746672, -0.00108169403, -0.00938609801,
       0.019821573, -0.0333569534, 0.0064410246, 0.00720117521,
       0.0101916939, -0.0240687691, -0.00885992497, -0.0105012935,
       0.00580545049, -0.00870424323, -0.0284782723, 0.0029063744,
       0.000854456972, 0.0402673371, 0.013585777, -0.0203938037,
       0.0190605167, 0.0154921282, -0.0219375342, -0.00489086146,
       0.0120887682, -0.0399974026, -0.00262102415, -0.018466983,
       0.0376562476, 0.0238093454, 0.00474988902, -0.00839522015,
       -0.0168663133, -0.00176200445, -0.0191448703, 0.0291997995,
       0.0240626279, 0.0123634161, 0.00897574052, 0.00340427784,
       -0.0257991906, -0.0230067838, -0.0400259271, -0.0205978062,
       0.031440746, 0.00954255369, -0.013313056, 0.000786931254,
       0.0117623126, -0.00682976842, 0.00746420072, -0.0471233428,
       -0.0379144102, -0.0165454, -0.0102226418, -0.00690020388,
       0.00282453001, 0.000196363835, 0.000414524926, -0.00512328791,
       -0.0245405585, -0.0216698833, 0.0327357389, 0.0329588763,
       0.0266973339, 0.00260079512, 0.0185032077, -0.0251095966,
       -0.00866586901, -0.0191545039, -0.00946087297, -0.00151842437,
       0.0126951225, 0.00397903286, 0.00880890433, -0.00288268784,
       0.0152435945, 0.00594991492, -0.0161773581, -0.0145585649,
       0.0220010169, 0.0215604696, 0.00120956334, -0.00195746566,
       -0.00219270331, 0.0101231551, -0.0323311836, -0.0431648381,
       -0.0330750011, -0.00321435393, -0.000185736499, -0.0209152717,
       -0.0238135606, -0.00939183589, -0.00352351624, -0.00506630493,
       0.0143740913, 0.00121925399, 0.0390157104, 0.0500530973,
       0.0319481678, 0.00600808254, -0.0204221718, 0.0154203717,
       -0.0127516389, -0.0201302022, -0.00957470667, -0.0144165661,
       0.0340612456, 0.00917709805, -0.0104361903, -0.012523761,
       -0.0128871938, 0.000246697367, 0.00216496969, -0.0185115673,
       0.0239075627, -3.95877505e-05, -0.00464938348, -0.00911819562,
       0.00747179519, -0.0106038535, -0.0198140368, -0.000791520812,
       -0.0031977992, -0.00610274961, -0.0341452658, -0.000410096807,
       -0.0289649032, 0.00823259819, -0.0448251702, 0.0301126428,
       0.0136887012, 0.00639327057, 0.0410421565, 0.0227537751,
       0.0339601412, -0.00228611566, 0.029375935, 4.4224078e-05,
       -0.0196614712, -0.0203582831, 0.00287868711, 0.0121712731,
       -0.015539756, 0.0246554539, -0.00244590524, 0.0171979405,
       -0.0342824608, -0.0196852554, -0.00323432847, 0.00058458274,
       0.0191137288, -0.032930214, 0.00648284378, -0.00948920473,
       0.0247139316, -0.0144863045, 0.00526355905, -0.00138070132,
       -0.0147926081, -0.00499522593, -0.041674044, 0.0165862199,
       0.0151269557, 0.0126998769, -0.0160945375, -0.0331031717,
       -0.0118279494, 0.012579415, 0.0280430056, -0.000886896625,
       0.032139197, -0.0228037536, 0.0252115112, -0.0167072918,
       -0.00221448927, -0.0136170629, 0.00257405872, -0.000576910097,
       -0.0123164784, 0.0316769816, -0.0139157064, 0.00234759925,
       -0.00751643488, 0.016199911, 0.00615525991, -0.00401804177,
       -0.0273504537, -0.036700625, 0.00765244337, 0.00283762161,
       -0.00333957188, 0.0297776088, -0.00211866596, -0.0128776291,
       -0.0137176085, -0.0165775064, -0.0112937987, -0.00891336519,
       -0.0178821161, -0.0209369063, 0.000333992153, 0.0197985433,
       -0.0117789162, 0.0202999618, 0.0234438498, 0.00905081537,
       0.0447799377, -0.00952817593, -0.0231498666, -0.00879897829,
       -0.0247449577, -0.00589291519, -0.00261817919, 0.0207377411,
       -0.00607655197, 0.033900097, -0.000107284861, 0.00233260659,
       -0.0377001837, 0.0189834256, 8.03818984e-05, -0.00935181696,
       0.00507907011, 0.019155927, 0.018921677, -0.00764914695,
       0.00813959353, 0.00547218369, -0.0144815762, -0.020012306,
       -0.0354427136, -0.0255277306, -0.0201795865, -0.0153192719,
       -0.0177046694, -0.0130250538, -0.0111775724, 0.0382329114,
       0.0270419698, 0.0235870164, 0.0273176301, 0.0171847604,
       0.0249301344, 0.0191119891, 0.0468942933, 0.0139971478,
       0.00617263326, 0.045611687, 0.0193887502, 0.0214404184,
       0.0136672836, 0.0143621648, 0.0195688307, 0.0229806136,
       -0.0286821686, -0.0129623907, 0.0128609641, 0.00784369651,
       0.030081626, 0.00476798974, -0.00909287296, -0.0283210538,
       -0.0055900123, -0.00190281018, 0.00847809855, 0.0120332269,
       -0.0200085845, 0.00427318644, -0.00868779607, -0.0190000311,
       -0.0373179875, -0.0211791489, -0.0152640436, -0.00604033656,
       0.0341757126, 0.0239791665, 0.0404329859, 0.0318366848,
       0.0254718922, 0.0322042443, 0.0252161901, 0.00382317114,
       -0.00856912881, 0.00526975421, -0.0122461049, 0.0256559979,
       -0.00186795101, 0.00171997759, 0.00600881316, 0.00409099599,
       -0.0146054775, 0.0198194385, 0.0100612585, -0.0200787969,
       -0.00272062374, -0.00199677399, 0.019091703, -0.024044035,
       -0.0152972182, 0.00897923205, 0.0234895106, 0.00723398989,
       -0.0249606315, -0.0379001983, 0.0044176029, 0.0090853367,
       0.00141607947, 0.0263775364, 0.0211442932, -0.0033464185,
       -0.00539457658, -0.00253704446, 0.0497202016, 0.043562524,
       0.0420304984, 0.000735868816, -0.00739345793, -0.0206608176,
       -0.0121381022, -0.00699695479, 0.00580561766, 0.00745307608,
       0.0280721039, 0.0115111824, -0.000273562531, -0.00668272702,
       -0.011102262, 0.00778872613, 0.014077954, 0.00296484749,
       0.00519587751, -0.0153779015, 0.00687995786, -0.00939206593,
       0.0225095991, -0.00165700947, -0.0028543612, -0.0124632819,
       0.00743980007, 0.0181605481, 0.0133051472, 0.0174065307,
       -0.0188657995, -0.0186384954, 0.000561821973, 0.00504576275,
       -0.00890706293, 0.0250834841, 0.0151940398, 0.0229262654,
       0.0133625381, -0.00406089239, 0.020336872, 0.0244276728,
       -0.0254529193, -0.0233662874, 0.00995247532, 0.0237502828,
       0.0127952388, 0.0345895402, 0.00715584215, 0.00473208958,
       -0.00519485446, 0.0187440682, 0.00470881769, 0.0152540104,
       0.0209220368, 0.0171103198, 0.01887412, -0.0192543697,
       -0.0174590945, 0.0209455974, 0.0152391009, -0.00356832589,
       0.0177297611, 0.0240487028, -0.00792308431, -0.00498043559,
       -0.0015405562, -0.013629593, -0.0052481126, -0.00559838489,
       -0.0103810197, 0.0197598245, 0.0337880328, 0.000665346626,
       0.0342890918, 0.00881634001, 0.00846938882, -0.000592605444,
       -0.0166165903, -0.000290069525, 0.00386407762, 0.0323237255,
       0.00493235048, 0.017193716, 0.00450776378, 0.00986078009,
       -0.0179015808, 0.00822490081, 0.0119397836, 0.0169969704,
       0.0265541598, -0.0186978169, 0.00131030742, 0.0122261029,
       -0.0144179994, -0.00977410469, 0.00670535769, 0.0138619794,
       0.0118097439, 0.0145618115, -0.005526138, -0.00952925906,
       -0.0225705206, -0.0320909582, 0.0188836958, -0.00808439124,
       0.0138921402, 0.000766855199, 0.036764618, 0.0123572461,
       0.0241009239, 0.00728983525, 0.00329822185, 0.00253609917,
       0.0106542204, -0.0163989253, 0.00325706275, 0.0252954364,
       0.0404767022, 0.0119759412, -0.026975194, -0.00543680694,
       0.0284383763, 0.0110753784, 0.00783730671, 0.0117067723,
       0.0114931418, 0.0230305512, -0.00574678881, -0.0123829106,
       -0.0255538803, 0.0161617827, 0.0258226823, -0.0350423232,
       -0.0117068449, 0.0154110109, 0.0164046492, -0.00721974811,
       -0.0100011434, -0.030980479, 0.0463455394, 0.016621571,
       -0.0205771923, 0.0272132307, 0.00638124812, 0.00829095207,
       -0.000382088503, -0.0169326216, -0.00723205227, 0.0258914698,
       0.0313791484, -0.0597857125, 0.0140834786, 0.0191315841,
       0.00610961393, 0.00465203263, -0.00121646968, -0.0251202062,
       0.0129732704, 0.00911747571, -0.00871600769, -0.0259710159,
       0.00785660185, 0.0279556457, 0.0443658419, -0.0151793268,
       -0.0485436432, -0.0113028651, -0.00549007114, -0.00665912731,
       0.0203996971, 0.0140453437, 0.0208379813, 0.0138311395,
       0.0190602783, 0.0122396378, 0.00138359785, 0.0112262517,
       0.000640187529, -0.00724785635, 0.0105485264, 0.0286643058,
       0.0124848792, -0.0238170791, -0.032989841, -0.0043727071,
       -0.000971941568, 0.00656213937, 0.0239754375, 0.0212937947,
       0.0116230408, -0.000123507911, -0.0109857097, 0.0106723718,
       0.0293656383, -0.00333771179, 0.00413504429, 0.0101740696,
       0.0126596745, 0.0193141829, -0.00412308238, 0.00209152489,
       0.0104334261, 0.0125221554, -0.00548087759, 0.0118989917,
       0.0132625271, 0.0412403718, -0.0135017429, -0.0135045908,
       -0.032585334, -0.013032699, -0.000502665993, -0.00637950376,
       -0.0129492655, 0.00442838669, 0.0172337294, 0.0231241006,
       0.00317368167, -0.00428733695, 0.00347226206, 0.0439625941,
       -0.0177314114, -0.00285956846, 0.00531545002, 0.0320706889,
       -0.00792948715, 0.0181763638, -0.00103018945, -0.00481618755,
       0.026012592, 0.0243563764, -0.00823324546, -0.0178582482,
       0.0139737129, -0.0239955056, -0.00956510752, -0.0180888772,
       0.00271722232, 0.017219197, 0.0375964344, 0.00190962374,
       -0.000245832518, 0.0186862294, 0.00565693947, 0.0201304406,
       0.00908301771, 0.00462516816, 0.0125169447, 0.00476816529,
       -0.00192188029, -0.0303291045, 0.00414998224, -0.029413091,
       -0.022087533, 0.000823747949, -0.021862343, 0.041231893,
       0.0222136062, -0.00332762371, -0.0349434987, -0.00739786448,
       -0.0294721369, -0.00157349952, 0.0188568048, 0.000821180176,
       0.0168532655, 0.00981726125, 0.000796341337, -0.0178304128,
       0.00302357553, 0.00864111446, 0.0216042083, 0.00861330889,
       0.0179169662, 0.00652412651, 0.00446279533, -0.00629727216,
       -0.00487369858, 0.0200635698, 0.019991776, 0.0213980917,
       0.010949472, 0.0143191237, 0.00131514797, -0.0112833399,
       0.00638597412, -0.00501007726, -0.0153428838, -0.0206990261,
       0.0104911076, -0.00592714315, -0.0325554013, -0.0085362792,
       -0.00577788753, 0.0411339626, 0.0181829892, -0.0161208548,
       -0.0117144138, 0.0051172832, -0.0279932003, -0.042276755,
       -0.00550921913, -0.00788339507, -0.00473921141, 0.0098331878,
       0.0194246713, 0.0344190747, -0.00194733194, 0.00569458073,
       0.0160658024, -0.0224321075, -0.00416032225, -0.0132884206,
       -0.00108861388, -0.035527505, 0.0114158848, -0.00147436478,
       0.000776328845, 0.0399365313, 0.000399792392, -9.08824513e-05,
       0.0221315604, 0.00424725423, -0.00578016555, 0.0295368247,
       0.00252468861, -0.0119203767, 0.00250214664, 0.00332654454,
       -0.0451049581, -0.0382461511, -0.0368098021, -0.0280388016,
       -0.00401231227, 0.00327645708, 0.00598811125, 0.0542137586,
       -0.00988764036, -0.0170897413, -0.0166831426, -0.0243632011,
       -0.0350639522, -0.0281532947, -0.0212857127, -0.0254547428,
       0.0180119984, -0.00553745823, 0.0407695845, 0.0224021729,
       -0.0241608918, -0.0201503113, 0.00230781198, 0.0122797098,
       -0.0109935654, -0.00231780461, 0.00503012398, -0.0250182971,
       0.0455765389, 0.0589206144, 0.0214221105, -0.0224258732,
       -0.0230376143, -0.00830886606, 0.0234005302, -0.0286626611,
       0.0161289908, 0.0706936494, 0.0314859487, 0.013476979,
       0.0246512685, -0.0192074347, -0.0346297994, -0.0134847788,
       -0.0432317071, 0.0453564003, 0.0322254077, -0.045864787,
       -0.0381005667, -0.0129466923, 0.0418678485, 0.00412107119,
       -0.0166647024, -0.00881769974, 0.0360362269, 0.0164487548,
       -0.0360097177, -0.0260400735, 0.026280025, 0.00977129582,
       -0.0264541768, -0.0135847619, -0.0137740131, 0.043916449,
       0.100683995, -0.0370901972, -0.0245991014, -0.0487746596,
       0.0113025727, 0.00550833158, -0.0182403121, -0.0485260561,
       0.00180524017, 0.0248033255, -0.0575920343, -0.0334681757,
       -0.00358705758, -0.0181661099, -0.0199870653, -0.0447625071,
       -0.0230746157, 0.0500337072, 0.0399153605, -0.00997459143,
       -0.00720334658, 0.0370264389, 0.0116623631, -0.0214749295,
       0.000896851823, 0.0189988669, 0.00925119128, 0.00839430653,
       -0.00249411468, 0.0029712969, 0.0181573685, -0.00934012979,
       -0.000953912619, -0.0160138961, -0.00495369965, 0.0142054018,
       0.0387314558, -0.0133566409, -0.0101426141, 0.0178094171,
       -0.00619682949, -0.00420719292, -0.00586092751, -0.0183096547,
       -0.0416713879, -0.00338675221, 0.00354094454, 0.00766415335,
       0.0103159938, 0.000986095169, 0.00724239554, 0.00046286796,
       -0.0479421131, 0.00725614931, -0.00130262482, -0.00752532342,
       0.000100608879, 0.0179964304, 0.0103874635, 0.0111490088,
       -0.00995493121, 0.00200743368, 0.018395558, 0.0025104268,
       -0.00987468474, -0.0275001489, -0.00630738959, -0.00916764326,
       0.0133025227, 0.0171932038, 0.016726125, 0.00546698086,
       0.0235282723, 0.00602069963, -0.0119220223, -0.00845908001,
       0.000753083383, 0.015538089, 0.0181354024, -0.020256551,
       0.0254722945, 0.0330898874, -0.0147904074, -0.0239446871,
       -0.0134749096, -0.0190019347, 0.0245939735, 0.0188746974,
       0.00759757403, 0.0144707374, -0.00983284879, -0.0221782774,
       0.0116610723, -0.0270917825, -0.00333366427, 0.00500787562,
       0.0264538936, 0.0280154832, 0.00782960467, -0.0272304136,
       -0.0309137087, -0.00786525197, -0.00681979023, 0.00669455994,
       0.00944184233, -0.00127132516, 0.0184898488, 0.00997372903,
       0.0594339482, -0.0055602151, 0.0336131528, 0.00249507953,
       0.0350048579, 0.0353730544, 0.0438595563, 0.00599241676,
       0.0113615841, 0.00638160622, -0.0253087096, -0.00680106087,
       0.0375383869, 0.0343377106, 0.0272580236, 0.0212474018,
       0.0151770636, 0.00211913977, 0.00365064363, -0.0133282421,
       0.0230794176, 0.0263832603, 0.013948339, -0.0239260476,
       -0.00683776382, 0.0144356685, -0.0109996004, 0.0031451704,
       0.00194608839, -0.00441992935, 0.00291067152, -0.0126373544,
       -0.048656024, -0.0358987078, -0.0301879812, 0.0194967426,
       0.00158262451, -0.0181231722, 0.0241085459, 0.0601415709,
       0.0461134128, 0.0140113989, 0.0524860546, 0.0323724858,
       -0.0277197585, -0.0123420171, -0.023260517, 0.00985164475,
       0.0232064333, 0.017862631, -0.0209233761, -0.00871146563,
       0.00613216916, -0.00965039339, -0.0122290421, -0.00201397226,
       -0.00166316424, -0.00447512092, 0.00627401611, -0.0271274596,
       -0.0312986709, -0.0327603854, -0.0190322977, -0.00588686112,
       -0.022888219, -0.020430686, 0.0184495784, 0.0352638848,
       -0.0147839123, 2.5026171e-05, -0.0301231313, -0.00895904284,
       0.0328007974, 0.00361265149, 0.0104730912, 0.0219639968,
       0.00444358867, -0.0141419265, 0.00409785053, -0.00566665502,
       -0.0155198844, 0.0217136536, -0.0258371718, -0.0103996741,
       0.0266370382, 0.036020346, -0.0360209085, -0.0226761829,
       -0.0109610353, -0.0152210575, 0.0140544297, -0.0416706949,
       -0.0499196723, -0.0112516824, 0.0073243198, -0.0219627116,
       0.0192117188, -0.00978563912, -0.0300281364, 0.00568782398,
       -0.0193792023, -0.0361438654, -0.0241241772, -0.0167855993,
       -0.00780998869, -0.0071518519, -0.0291716382, 0.0264230222,
       0.0231787227, -0.0436419472, -0.0143193183, 0.0373484716,
       0.0203877334, -0.0207119714, 0.0111921821, -0.00717499852,
       0.0361368731, 0.0323293209, 0.0127379745, 0.0106188599,
       0.0244130436, 0.0297008995, -0.0367403403, -0.019272862,
       -0.019610893, -0.0348807722, -0.00464023044, 0.00432283152,
       0.0133955302, 0.0267107394, -0.000523984432, -0.00753299752,
       -0.019773284, -0.0180440228, -0.0232341234, -0.0162056629,
       -0.0162888113, -0.0289364737, -0.0382288545, -0.0489376523,
       -0.0300086457, -0.00643783575, -0.0194625426, 0.00787588954,
       0.000700601609, 0.0208843667, 0.0316653177, 0.055832427,
       0.0437762178, -0.010998901, -0.0223249644, -0.0125058265,
       -0.0068617342, -0.0192882195, -0.000827529409, 0.0112235146,
       0.00903965533, -0.000454267196, 0.00680494634, -0.00805326458,
       -0.0152085247, -0.00590879191, -0.0112134097, 0.00707709277,
       0.00279173767, -0.0182929784, 0.00431939308, -0.0146917272,
       -0.00908540469, -0.00616408931, 0.00131343794, -0.013751437,
       -0.00809491146, -0.0471305177, -0.008207554, -0.0273947809,
       -0.0116237756, -0.009293654, -0.0174546093, 0.0177170392,
       0.00802128203, 0.0187547058, 0.052061297, 0.0203544181,
       0.0466114692, 0.0424307175, 0.0439094864, 0.028665619,
       0.0253584515, 0.0339776129, -0.00204537669, 0.00713548949,
       0.0239891298, 0.0576503724, 0.0292607062, 0.039383132,
       -0.00318697188, 0.0231264383, -0.00326828263, 0.00535447942,
       -0.0238534752, -0.00338340807, -0.00739709055, 0.0225337222,
       0.0123333447, 0.00938878022, 0.0139216017, -0.00681137946,
       0.00150085625, 0.00759535935, -0.031508036, -0.036802385,
       -0.0198034532, -0.0044812588, 0.0275107957, 0.0192538239,
       -0.00132313126, -0.0154540455, 0.0163817331, 0.0356089957,
       0.0759110078, 0.0288694426, 0.0168644171, -0.009117838,
       0.000566264032, -0.0239975508, -0.0146139655, -0.00290341489,
       0.0358650722, 0.00260721147, -0.0280625727, -0.00126979779,
       0.0026837613, -0.00346057606, 0.0194355045, 0.0164144691,
       0.0112544065, -0.0254896786, -0.00572194764, -0.00221166224,
       0.0113830892, 0.0114094932, -0.00422293274, 0.00716834888,
       0.00650891522, 0.0239589736, 0.0153781995, -0.0139781097,
       -0.0136397528, 0.0043686768, 0.00248967693, 0.00657275924,
       0.0162198525, 0.0209784638, 0.0018778888, -0.00863110553,
       0.00752699329, -0.00887521915, 0.00499333302, 0.0146325827,
       -0.0207704753, -0.0145369889, 0.002358875, 0.0174136925,
       0.0246626977, -0.0144594871, -0.0104119955, -0.0164619032,
       0.0181242004, -0.00951159745, 0.0170278791, 0.0174144823,
       0.0295767374, -0.0110122189, 0.0106996158, -0.00636432413,
       -0.00869891234, -0.00150819041, -0.00396166788, -0.0119928429,
       0.0321697518, 0.0340373106, 0.0224779956, 0.0129507119,
       -0.0227303412, 0.00984693319, 0.00120944437, -0.0015068854,
       -0.00624291413, 0.0232878663, 0.0267661698, 0.0371703468,
       0.00846929196, -0.00815304555, -0.00797133893, 0.0182630774,
       0.0221625678, 0.00316208112, 0.046602834, 0.0532273613,
       0.0375966579, 0.0108270878, 0.00183439406, 0.00711105904,
       0.00519164978, 0.0050828713, -0.0261251125, 0.0217124913,
       0.000954034156, -0.0119355945, 0.0164835267, 0.0160711315,
       0.0167718846, 0.0238740649, 0.0214126781, -0.0631929412,
       0.0172789972, 0.00669675088, -0.0118637765, 0.0103283189,
       0.00128347741, -0.0359681919, 0.0243510101, 0.0220958106,
       -0.0106284935, 0.0422189608, 0.0472919978, 0.00874549244,
       0.0242382903, 0.0306247752, 0.0298993159, 0.0217823554,
       0.0175034478, -0.0373404548, -0.00914388243, 0.0230879113,
       -0.0200123806, 0.0286128838, -0.00955538172, -0.0130900638,
       0.0354847535, 0.0112651652, 0.00941236038, 0.0047494485,
       -0.0058653499, -0.010031783, -0.0280273072, -0.0257366765,
       -0.0156272091, -0.00169713597, 0.00808391534, 0.0237054806,
       0.0125484597, -0.00681027211, -0.028264435, -0.0217704102,
       -0.00879943091, 0.0088698091, 0.0275771283, 0.00969514623,
       -0.00132844434, 0.00111458474, 0.00117511884, -0.0241468567,
       0.0143234907, 0.000993352849, 0.0047355257, 0.0202454906,
       0.0110455258, -0.00524088694, -0.00186527311, -0.00198243419,
       -0.0106262602, 0.0264935493, 0.0277430043, 0.0160753876,
       0.0253552347, -0.0221494138, 0.00676164823, -0.00482607121,
       -0.014663497, -0.0015091172, 0.00687288586, -0.00147913757,
       -0.00397613179, 0.0179095548, -0.003567131, 0.0162451211,
       0.0107298298, 0.044753965, 0.0212187469, 0.0236601755,
       0.0123785902, -0.00291565177, 0.016602993, -0.00129510486,
       0.0082545476, 0.0133888852, -0.0327499323, 0.0102581121,
       0.00583139807, 0.00696666772, -0.0144761559, 0.00779838767,
       -0.00279275654, 0.00837694202, 0.0160280634, 0.0198037978,
       -0.00866439007, 0.0199943483, 0.0243722983, 0.00795201771,
       0.0259177219, 0.0244530626, 0.00608829036, -0.0042470363,
       0.016046701, 0.022592321, -0.0161622334, -0.0073856907,
       -0.00433864165, 0.0259563923, 0.0322774015, -0.010922418,
       -0.0383679271, -0.0066505298, -0.0252541602, -0.00209733006,
       -0.0137448786, -0.000347600901, 0.0287091192, 0.00516086398,
       -0.0239307247, -0.0155407591, 0.0139575824, 0.0175199676,
       -0.0070697302, -0.0264848582, -0.00871391874, 0.00594922388,
       -0.00248135277, -0.030007638, 0.00169288612, 0.0446380042,
       -0.0236080885, 0.016417196, -0.0308005307, -0.0358469486,
       -0.00619372027, -0.0132126734, -0.0221115835, -0.0151498811,
       -0.0297456495, -0.022265261, -0.0152012911, -0.0262947138,
       -0.0650207326, -0.00344974059, 0.0340089686, 0.0397179201,
       0.0220018066, -0.00784921087, 0.0418914296, -0.0357986428,
       -0.0219726991, -0.0668640435, 0.0140041858, -0.018027477,
       0.0136780506, 0.0887933224, 0.0689099729, 0.0218222272,
       0.0255595893, -0.0221716128, -0.0591944903, -0.0357699282,
       0.0301308781, 0.0703954622, 0.0817172453, 0.0370682813,
       0.0275725592, 0.00540014356, -0.00803877693, -0.000710525201,
       0.0226062499, 0.0328089297, -0.00451788725, -0.0454850122,
       -0.052080337, 0.00847298093, -0.0588280894, -0.0316609628,
       0.00464633526, 0.0457419604, -0.00620190427, -0.0406154729,
       -0.0164155718, -0.0219386518, 0.0169881228, -0.0410297699,
       -0.00804167893, 0.0326113589, 0.0357087329, 0.0411576033,
       0.0280312262, -0.0109596439, -0.0251728576, -0.00163292675,
       -0.0284084808, 0.00991037302, 0.085877724, 0.0879702792,
       0.0344238766, -0.0230254866, 0.00774495397, 0.0214073118,
       0.0207808577, -0.0114070363, 0.0271986742, 0.0828805864,
       0.0700061172, -0.0122773666, 0.0869230181, 0.107891373,
       0.0729112178, 0.00604967913, -0.0353331789, -0.0141678602,
       -0.0147177773, -0.0638186336, -0.0323764347, 0.0722542107,
       0.059272822, 0.0171260126, 0.0296832975, -0.0342932679,
       -0.0290359855, -0.037473157, -0.1033777, -0.0210581906,
       0.0432408601, 0.0848973542, 0.078372784, 0.00262884493,
       -0.0147951692, 0.0175284054, 0.0409405343, -0.0513893515,
       -0.0443294123, -0.00173316407, 0.014513596, -0.0211760253,
       -0.00923133176, -0.0348852761, 0.00672675017, -0.0237534512,
       -0.0668441504, 0.0363121554, 0.10037484, -0.00290677254,
       0.0284078419, -0.0230322257, 0.00681992248, 0.0362020619,
       0.0248318389, -0.0373418704, 0.00634920737, 0.0509436391,
       -0.0341706611, -0.00326660974, 0.0131447483, -0.00382904848,
       0.0207221285, 0.0306217987, -0.000440665521, -0.0307385493,
       0.0181205757, -0.031835217, -0.0356032625, -0.0273760725,
       -0.0165478997, 0.0275548361, 0.0152395796, -0.0207677316,
       -0.0131906793, -0.0433070958, -0.0663421229, -0.0291324202,
       -0.00435062451, -0.0305523332, -0.00157686172, 0.0270184148,
       0.0295309816, 0.0103932405, 0.0590201132, 0.00299198716,
       -0.00300223799, -0.0174423996, -0.0157970749, -0.0025924684,
       0.0383746959, 0.00657028705, 0.0239642188, 0.0544367991,
       0.036942102, 0.00620677415, 0.0216133986, -0.000468788261,
       0.00994634815, 0.0410493091, -0.0211320184, 0.00970878266,
       -0.0138025237, -0.02297098, -0.0157568306, -0.0245713126,
       -0.0584092587, -0.0232233517, 0.0189258661, 0.00738300756,
       0.0132072717, 0.0362299941, -0.0102273719, -0.0276050791,
       -0.00280479714, -0.0408339016, -0.0231541824, -0.0225130394,
       -0.0358773172, 0.0253807772, 0.069605127, 0.0313053429,
       -0.0222651325, -0.0399227589, -0.00350058754, 0.00928692427,
       0.0425289534, -0.00774541218, 0.0659321696, 0.0928229913,
       -0.00947881304, -0.041958496, -0.0265674517, -0.0221071932,
       0.0111070443, 0.0336497352, 0.0226658173, 0.00350382621,
       0.048894722, -0.0109957187, -0.0299839005, -0.0162800755,
       -0.0191282015, 0.00643580966, -0.0368385911, -0.0535691343,
       -0.00220187078, 0.014968805, -0.0278135166, -0.0305157285,
       -0.011492894, -0.00507359859, -0.0225029942, -0.0178525634,
       -0.0221786927, 0.0393804722, 0.0878458396, 0.0166934468,
       0.0140078189, -0.00914589595, 0.0266732741, 0.0162003003,
       0.0356904119, 0.0417702682, 0.0311730951, 0.039716959,
       0.0177548155, -0.012423736, -0.00385799515, 0.0367984548,
       0.0264661629, 0.0479608662, 0.0617781319, -0.0191588663,
       -0.00868456811, 0.00292326277, 0.00396403251, 0.0193011183,
       0.0274700448, -0.00554921012, 0.0044610668, -0.0422535054,
       -0.046686694, -0.0332410783, 0.00110319082, -0.0217444506,
       -0.00997935887, 0.0221598409, 0.00132815342, -0.011894023,
       -0.02274126, 0.000860965345, 0.0147934258, -0.00820701942,
       -0.0194447525, 0.000264145783, 0.0433710665, 0.00109104917,
       0.0374834351, 0.0553897582, 0.00138461066, 0.0139682256,
       -0.0171041656, -0.0159804225, 0.0134515148, 0.0354142748,
       -0.00204031775, 0.0362941958, 0.0621681549, -0.0270227492,
       -0.0140656, -0.0277479235, -0.0616400726, -0.0165536962,
       0.0171692315, -0.00526877074, 0.0203604586, 0.0243655313,
       -0.00323672034, 0.00350523507, -0.0568508394, -0.046562098,
       -0.0124574946, 0.00359805697, -0.0335774273, 0.0411234833,
       0.0221572984, -0.0189965237, 0.0296865478, -0.00744640641,
       -0.0193237495, -0.0222097673, -0.0137084732, -0.0160605498,
       0.0368496589, 0.0484980494, -0.0105547477, 0.0104952753,
       -0.028075099, -0.0328661837, -0.00250504236, -0.0117374724,
       -0.0340743177, -0.00472342735, 0.0177743193, -0.00683738478,
       0.00774785597, -0.0321100205, -0.0522626936, -0.0177987572,
       -0.0140119577, -0.0140675269, 0.0577946492, -0.00542510254,
       -0.000376764656, -0.00767437741, 0.00207816181, -0.0333120823,
       -0.00977970567, -0.0076512862, -0.0303671379, 0.00460834336,
       -0.0116075873, -0.0144653451, 0.00257620006, -0.0411892869,
       -0.0372246355, 0.00632064324, -0.00348771177, -0.0316177383,
       -0.00480204076, 0.00426864438, 0.00103873736, 0.0151056638,
       -0.0145688215, -0.0145094674, -0.00931265391, -0.00239867531,
       -0.0442733318, -0.020849131, -0.00599111523, -0.0194138754,
       0.00938161463, -0.0103744362, -0.020001566, -0.0187209398,
       0.00184853037, -0.0166339893, 0.0061304546, -0.0307840984,
       -7.14348935e-05, -0.00253950688, -0.0304240771, -0.0375286862,
       -0.0175076034, -0.00887917448, -0.0142653482, 0.00296621397,
       0.0242012683, -0.0380728468, -0.000653794094, -0.0144420192,
       -0.00636505894, 7.83930445e-05, -0.0174348541, -0.0372875184,
       -0.0224453118, -0.00869682617, -0.0386732444, -0.0132846525,
       -0.0422010161, -0.0331469923, -0.0621782206, -0.0458804071,
       -0.00478353258, 0.006288053, -0.0106551899, 0.0107608084,
       0.0269829109, -0.0382025503, -0.0279322695, -0.00962616224,
       -0.0435074233, -0.0336725712, 0.019161189, 0.0491317064,
       0.0271763466, 0.060912542, -0.0256179105, -0.00447242474,
       -0.0292727482, -0.0244844146, 0.00703894394, 0.0603614002,
       0.0229594167, -0.0243781917, 0.013648103, -0.0284863636,
       -0.0198902227, -0.044711303, -0.0272554532, 0.00795305707,
       0.0122183561, -0.0114081912, -0.00885282177, 0.0158359595,
       -0.0370089561, -0.0571558625, -0.0391379073, -0.0290816892,
       -0.0208833236, -0.00719598774, -0.0416219048, 0.0262765102,
       0.0978124216, 0.0302804783, 0.0299732573, -0.000916227582,
       0.00589224789, 0.0205694642, 0.0396900289, 0.0251333583,
       0.047438588, 0.0783291832, 0.0305286907, -0.0186161958,
       0.0052469112, 0.0121602649, 0.00235687266, 0.0252927896,
       0.0267295539, 0.0252390634, 0.00846342277, -0.0232203435,
       -0.00676338654, 0.0192267634, 0.062292099, 0.022031514,
       0.0128053101, -0.0124615291, -0.0189374276, -0.057445813,
       -0.0551110283, -0.070246011, -0.0400856286, -0.00688160257,
       -0.00790750887, -0.0147016086, -0.0287847016, 0.0662600696,
       0.0673568398, 0.0346059501, 0.0637744218, 0.105405346,
       0.132032514, 0.0738865286, 0.046005711, 0.0579739921,
       -0.0196446069, -0.0441665314, -0.0543833263, -0.0496305712,
       -0.00387540599, 0.0182034727, -0.00873041153, -0.05025924,
       -0.0189607851, -0.00744081941, -0.0134660657, -0.0108285276,
       -0.0217206813, -0.0131781027, 0.0262291897, 0.0445758216,
       0.0272046905, 0.0102925058, -0.0325633511, -0.0199879017,
       -0.0108480062, -0.00627297629, -0.00433123671, -0.0021951641,
       0.0100427028, -0.00717338547, -0.0189908128, -0.000532752543,
       0.00449713692, -0.0134307053, 0.0143609792, -0.00543424673,
       0.0388537422, 0.0428668223, -0.00696048094, -0.00802669767,
       -0.0131608024, 0.00678008236, -0.00731413066, 0.00258476567,
       -0.0219301637, 0.00624483358, 0.0244897045, -0.0367979743,
       -0.0357460231, 0.0170431845, -0.0144149335, -0.0067572915,
       -0.0139123807, 0.0108118858, 0.0136560593, 0.00352000142,
       -0.00275858329, 0.0153119769, 0.0374478996, -0.0195069257,
       0.00714167627, -0.00786913931, 0.0310072135, 0.0138394479,
       0.0149797713, 0.0113522364, 0.0283120442, 0.00920351036,
       -0.000918181089, 0.0204586033, 0.00144836539, -0.0247592553,
       0.0187693238, 0.0196134597, -0.000992838526, -0.001236993,
       -0.00455814321, -0.01744546, 0.0248811617, 0.00151882006,
       0.0185262188, 0.020140266, 0.0246640127, 0.0092754839,
       0.00841235742, -0.00145975931, -0.0201115869, 0.0262470953,
       0.0163896494, -0.0150552327, 0.0129342144, 0.0304883607,
       0.0163273234, 0.000218731715, -0.0140421959, -0.0466704443,
       -0.000174003828, 0.0155047486, -0.0499607287, 0.013507165,
       -0.00377929909, -0.0115860375, -0.00336290174, 0.00921477936,
       -0.0213596988, 0.0153428381, 0.0193592496, -0.0043961918,
       0.0295097381, 0.0128178857, -0.0296387319, 0.00958289113,
       0.0395058207, -0.0455016978, -0.0127156097, -0.00198859791,
       -0.0165064819, -0.00845145527, 1.68662209e-05, -0.0550454855,
       0.0234476048, 0.0373041034, -0.00958250463, -0.000200057169,
       -0.00211377721, -0.0185599532, 0.00157858082, -0.00744852144,
       -0.00586697133, 0.0334639549, 0.0187023245, -0.014571053,
       0.0156652201, 0.00987529848, 0.016742019, 0.00898552407,
       -0.00121579121, -0.011183654, 0.0191529002, 0.00200347975,
       -0.045951657, -0.0410817564, -0.00397512969, -0.00231834175,
       -0.00386148621, -0.0129950009, -0.0345486104, -0.0175979882,
       -0.0038926478, -0.0229481086, 0.0224185567, 0.036365509,
       0.00821410306, 0.0081320703, 0.00239442266, -0.0217603091,
       0.00137763482, 0.0118484953, -0.00368550769, 0.0272941887,
       -0.00180332968, 0.00272290106, -0.00132973189, -0.00662580365,
       -0.00709001813, 0.0324043483, 0.0425308309, -0.0171367172,
       0.00816016737, 0.00747317867, -0.0203834064, 0.00514128432,
       -0.00133828586, -0.0160832349, 0.0357016996, -0.00780089479,
       -0.0289825164, 0.00715215923, 0.0280442089, 0.0217681918,
       0.00688528735, 0.0177928172, -0.00429360848, 0.0226258636,
       -0.0268880036, -0.0363361798, -0.0211944915, 0.0155940708,
       -0.00236078585, 0.00698337657, 0.0244846288, 0.0266770218,
       0.0325246863, 0.056148991, -0.0303823538, -0.0248766057,
       -0.0130592044, -0.012330913, -0.0239574313, -0.0413828641,
       -0.0323670208, 0.0468809158, 0.0470101684, -0.0310867373,
       -0.0175648686, 0.047438506, -0.0280649308, 0.0279758796,
       -0.0420212112, -0.0528078638, 0.0240596756, 0.0120101869,
       -0.0349250808, -0.0542878807, -0.00898171216, 0.00821660738,
       -0.0351396799, -0.0416943766, -0.0171577279, 0.0453784876,
       0.0283007063, -0.0290036984, -0.0394786261, 0.0392196588,
       -0.0281088781, 0.0467628576, -0.0181299355, -0.0411932617,
       0.0119763464, -0.0472312309, -0.0423974916, 0.0389292128,
       0.0494238995, 0.0173151381, 0.0390949622, -0.00862952136,
       -0.0599890612, -0.0526813753, -0.0236065853, 0.0477820635,
       0.0800968483, 0.0388566814, 0.0206592474, 0.0185950845,
       0.00949589163, -0.00852930732, -0.0161910802, -0.0564860776,
       -0.0547379404, -0.00710357493, 0.0391818658, 0.0390390195,
       0.0715056285, 0.0630976632, -0.0196137689, -0.0445628352,
       -0.034435343, 0.0165736452, 0.0487308428, 0.020522546,
       0.0100427493, 0.0342090689, 0.0633935183, 0.031580653,
       -0.0128878551, 0.0198908485, 0.0418643951, -0.00737179816,
       -0.0194378328, -0.0234688781, -0.0223159678, -0.00846536178,
       0.0531634167, 0.0411619805, 0.0171813462, -0.0152483881,
       -0.017912399, -0.0117767155, 0.00570105808, -0.0347929671,
       -0.00193323824, 0.0437371992, 0.00774422381, 0.0677200407,
       0.0780639946, -0.000134981878, -0.0408525951, -0.0178308263,
       -0.0181240197, -0.0103085749, 0.0229330808, 0.0337581895,
       0.0335999206, 0.0261797607, -0.00985924713, -0.061104212,
       0.0021293324, 0.0178818014, 0.0287870727, 0.000146360937,
       0.00144095602, -0.0382026322, 0.0274122432, 0.0621711053,
       0.0781023949, 0.0247460306, 0.0445422605, 0.050417684,
       0.0375202671, -0.0483550839, -0.0916674584, -0.0282004718,
       -0.015975045, -0.0179473609, 0.0259664338, 0.0170794372,
       0.0301451758, 0.00203900738, -0.0527238846, -0.0213599727,
       0.0377058461, 0.0473317094, 0.0157237612, 0.0398556776,
       0.0834424943, 0.076361917, 0.0135140503, -0.0316654667,
       -0.0672978833, -0.0271978229, -0.00494129863, -0.0334638618,
       0.0216375235, -0.00499777123, -0.00663034897, -0.0569270961,
       -0.0660811737, -0.0410540625, 0.0186690316, 0.00800408609,
       -0.021163879, -0.0136170816, 0.00917950459, 0.0286273807,
       0.0400855243, -0.000663506333, -0.00141658669, -0.0122807194,
       -0.0477237813, -0.0328905731, -0.0101892715, -0.0283619091,
       -0.0114328871, 0.0265664905, 0.0227248594, -0.0344911888,
       0.0267905816, 0.0102073727, -0.0030186763, -0.0444533229,
       -0.0346550159, -0.00545866694, 0.0249467473, -0.0356075689,
       0.00538051501, 0.0355382562, -0.0278693698, -0.0182127468,
       -0.0475040227, -0.069098182, -0.0331449211, 0.0184628721,
       -0.0146506727, -0.0132803107, -0.00639186101, -0.0308176409,
       -0.00249476079, -0.0241065603, -0.0169663783, -0.00757210376,
       0.0208728518, 0.0121405758, -0.0178982839, 0.00589192146,
       -0.0100341067, -0.0276128929, -0.0362918302, -0.0206139404,
       0.0104811834, -0.00647057407, -0.0355947427, -0.00509059895,
       0.0034924678, -0.039849773, -0.0141849481, -0.0288130026,
       -0.0175439231, -0.0305616595, -0.00418819999, -0.0207672454,
       -0.020835124, -0.0104310615, 0.00570086297, -0.0137199312,
       -0.0286263153, -0.0193930939, 0.000524217496, -0.023207508,
       -0.0174225792, -0.0179230869, 0.0105635496, 0.00357600371,
       -0.00655753026, -0.0196422283, -0.0122377239, 0.0280167088,
       -0.0270660557, -0.0333147421, -0.00704768486, -0.0234490614,
       -0.00707320496, -0.0014206121, 0.00966748688, 0.00966995489,
       0.0444569625, 0.00453286944, -0.0175256096, -0.0417545214,
       0.000694973452, 0.0320248678, -0.00229078741, 0.0078713242,
       -0.011350356, 0.00785821397, 0.00369541557, -0.0155138867,
       -0.0393576287, 0.0113756983, 0.00713882642, -0.00734074926,
       -9.52228511e-05, -0.0287669189, 0.0198072102, -0.013561096,
       -0.00488395384, -0.0183711145, 0.00193181646, 0.0277371444,
       0.048224654, 0.0516348742, 0.0430561006, 0.0408058167,
       0.00799019355, -0.0462252647, -0.0235507898, 0.010767593,
       0.0160714816, 0.019072257, 0.043246191, 0.0275952704, 0.012638865,
       0.0113381995, -0.0581224971, -0.0493826456, 0.0189590361,
       0.00395444455, 0.029226888, 0.0461050756, 0.0204247851,
       0.0204983279, -0.0272766799, -0.0504043251, -0.0293721054,
       0.0322604328, 0.0067341337, 0.000962114718, 0.0761314332,
       0.0368881375, 0.0181384347, -0.0204942469, -0.0338471085,
       -0.00181795249, 0.0145775247, -0.0102747679, -0.0374796055,
       -0.00367021188, -0.00799285248, -0.0311382487, -0.00383457309,
       0.0103066713, 0.00949869584, 0.0538388602, -0.0118329776,
       -0.0054807486, 0.0119460346, -0.0250883233, -0.0242005233,
       0.0244599152, 0.0264575537, 0.0181398187, 0.0502089486,
       -0.00219131494, -0.0192047972, 0.0109804207, -0.0059141852,
       -0.01365487, 0.00347771612, -0.0211468376, 0.0189819857,
       0.0229641236, -0.0180201847, -0.0203898344, 0.0215637647,
       -0.0127166761, -0.0152825834, 0.0364420861, 0.021363873,
       0.0236725528, 0.0388160571, -0.0155905243, -0.037135236,
       -0.00361589319, -0.0206171274, -0.0373051614, 0.0107183345,
       0.00295772101, 0.0297531076, 0.0331726223, 0.0203160197,
       -0.0336383618, -0.0137884822, -0.00644850638, -0.00723931752,
       0.0110543938, 0.020986056, -0.0212863497, -0.0163129475,
       -0.017858712, -0.022990685, 0.00867952779, -0.0269845854,
       -0.0241655819, 0.0358679518, 0.0299497824, -0.0188733004,
       -0.0151690934, 0.0149991643, 0.00805233326, 0.00540794479,
       -0.00593877956, 0.0218935627, 0.0451949127, -0.0109839542,
       -0.011753425, 0.0289188083, 0.00854192022, 0.00448987959,
       0.0121359639, 0.00975723285, 0.00049777719, 0.0130329886,
       0.00264497497, -0.0207227711, -0.000176802292, -0.0407245979,
       -0.0478842407, -0.0274992157, -0.0408114344, -0.0297587309,
       -0.00957624055, 0.0120631019, -0.05099703, -0.0047539263,
       0.00483675534, 0.0132440301, 0.0335197188, 0.0181425977,
       0.0228663031, 0.0275984202, -0.0314626247, -0.0187784713,
       -0.00605530152, -0.0219956394, -0.0400531702, -0.0298450924,
       -0.0355012529, -0.0383569486, 0.018096773, -0.0198344216,
       -0.0291117765, -0.00846873876, -0.0440176055, -0.0388729088,
       -0.00793458428, -0.0526412167, -0.0502490886, -0.0362099558,
       0.0108283637, 0.0197718032, 0.0350665674, -0.0304128025,
       -0.0154733369, -0.0292434748, -0.0306651946, -0.0311911497,
       0.01867803, 0.0209968798, -0.00316372444, -0.0405200683,
       -0.0582015179, -0.0398679525, 0.0129705984, -0.0365112349,
       -0.0494873896, 0.00390328444, -0.0231883749, 0.023996288,
       0.00659152772, -0.0312565342, -0.017340228, 0.0102325417,
       -0.0295486152, -0.0187557507, 0.0257504918, 0.0177655816,
       -0.00842639245, 0.0561971106, 0.0246314164, 0.0275419466,
       -0.0222449061, 0.00205942779, -0.014507656, 0.00200286135,
       0.0124062244, 0.0315743983, 0.0464556701, 0.0244605113,
       -0.00227194815, -0.00204721652, -0.0452032834, -0.0215725452,
       -0.00503347255, 0.00800869614, 0.0204823017, 0.0268687773,
       -0.000939624326, 0.00966321956, -0.0166273154, -0.0061461674,
       0.015225892, 0.0107598538, -0.0119393934, 0.0270261057,
       0.0236331522, 0.00322110415, -0.00139992358, -0.00264177867,
       -0.051494211, 0.0132372743, 0.0151980873, -0.00290689757,
       0.0120658539, 0.0293977931, 0.0231943969, 0.0593151003,
       0.0787082464, 0.0609539934, 0.0110857515, 0.00141407654,
       0.0115565695, -0.0270883814, -0.0295348596, -0.0510685816,
       -0.0557561778, 0.00650123321, -0.0239593703, -0.0172775853,
       -0.0477093235, -0.0155168837, 0.0174881872, 0.0112812342,
       0.031986963, 0.0738086402, 0.064473711, 0.0332006961,
       0.0150665687, 0.024011286, 0.0106178643, -0.0330121778,
       -0.0243928879, -0.0356432199, -0.000370602735, 0.0204047374,
       -0.0509967878, -0.0253905319, -0.041281309, -0.0309280902,
       0.00654937187, 0.00576289697, -0.0162771121, 0.010121963,
       -9.97956085e-05, 0.0362054072, 0.0261700358, -0.0171847641,
       -0.0245299153, -0.00699776504, -0.00345193595, -0.00615337584,
       -0.0117910253, -0.0607758611, -0.0069020181, 0.0228075553,
       -0.0330783539, -0.0371622667, -0.0113700703, -0.017573867,
       -0.00603771256, 0.0498923138, 0.0167952273, 0.0364853591,
       0.0259597525, -0.00193464349, -0.000959228899, -0.0100499624,
       -0.0164344814, -0.019824639, 0.00676323427, -0.0385728106,
       -0.014397948, -0.00432068808, -0.0225090515, 0.00751378946,
       0.0090779718, -0.00045687682, 0.00893731788, 0.0116570527,
       -0.0123152342, 0.00701472955, 0.0255625546, -0.00739689637,
       -0.00342638441, -0.0205554739, -0.0153136356, 0.0200203005,
       -0.00175349962, 0.00022873003, 0.0146587975, 0.00609592721,
       -0.00601490121, -1.36978697e-05, 0.00375783769, 0.0202283449,
       0.0207334533, 0.0202999674, -0.00293602259, 0.010325579,
       0.00532390131, -0.00868820306, 0.0312526189, 0.0121675991,
       0.0156317409, 0.0530794337, 0.0321103707, 0.0212566145,
       0.0156373102, 0.0131618548, -0.0114333564, 0.00702851079,
       -0.0148341982, -0.0162078962, 0.016742073, 0.0105793094,
       -0.0248367507, 0.0183607843, 0.00135026569, -0.0241278782,
       -0.00403841306, 0.00153232098, -0.0705392435, -0.0241692998,
       0.0171597712, 0.0107131042, 0.0198299643, -0.0102494666,
       -0.0680109113, -0.0219153985, 0.00468228338, -0.00805093348,
       0.0444711894, 0.00268036663, -0.00162738969, 0.0461234525,
       0.0378344357, 0.00501906127, 0.00211819308, 0.00320917531,
       -0.0707238913, 0.00316351233, 0.0316028856, 0.0190670025,
       0.0391421765, 0.0101590687, -0.0635275096, -0.0099068908,
       0.0313962325, -0.00188511482, -0.0204256289, -0.0125464406,
       0.0179545581, 0.0144849159, 0.00121260143, -0.0246072654,
       -0.0157877542, 0.0219668765, 0.0143783782, 0.00890038721,
       0.0269114766, -0.00328500802, 0.00469053444, 0.00216440554,
       -0.0371567123, -0.00324034388, 0.02399184, -0.0056696157,
       -0.0162226837, -0.00794794597, -0.0280557461, 0.0138361165,
       -0.0101310946, 0.00606276514, 0.0263442006, 0.0147487577,
       0.00453885039, -0.0130721945, 0.0223001335, -0.0442940146,
       -0.00409936998, -0.0170237906, -0.0138127562, 0.0157016907,
       0.002341985, -0.0279129297, 0.00998583529, 0.0403133444,
       0.0302660279, -0.00862624869, 0.018420998, -0.00822676253,
       0.025776431, -0.0146566527, -0.0334978811, -0.00489414949,
       0.0221928786, 0.0191329345, 0.0327525288, 0.0174258351,
       0.0105698556, -0.015789263, 0.00276114419, -0.0408989638,
       -0.0215281714, 0.0382109061, -0.0251887739, 0.00031788816,
       0.00533174444, 0.0122208288, 0.0142305708, -0.00347126881,
       -0.028198624, 0.0148056485, 0.0382459015, -0.012256044,
       0.0196596496, 0.017177036, 0.00869989954, -0.0164220501,
       0.0110185351, -0.0135402335, -0.0215368923, -0.00910682324,
       0.0244059637, -0.00388609618, -0.0240244847, -0.0274167489,
       0.00302008749, 0.0251387339, -0.00119474193, -0.0192025136,
       0.00425655395, -0.0268702526, 0.0300370473, 0.0131518822,
       -0.0202237088, -0.0228069741, 0.00345051941, -0.000207052843,
       0.0111224353, 0.00258294307, -0.00591629324, -0.00567906583,
       0.00279494212, -0.00933597703, -0.0237510614, 0.0151900593,
       0.00247254292, 0.0106088798, -0.0130437445, -0.00602235366,
       -0.00649870466, 0.00184238527, -0.00126305723, 0.0133007467,
       -0.0168601852, -0.0457029268, -0.0255340114, 0.000188061837,
       0.0280566867, 0.0638645068, 0.104277112, 0.039193593,
       -0.0196127035, 0.0205445886, 0.0157759879, 0.0109560657,
       -0.00694628246, 0.000962872, 0.0222742353, 0.0830142796,
       0.077035889, 0.0389865041, -0.0295662191, -0.0551456884,
       -0.0215630811, -0.0272556916, 0.0181408469, -0.0299758483,
       -0.00650395779, -0.0202536322, -0.0345660709, 0.00964093953,
       -0.0460620932, -0.0452977717, -0.0394026116, 0.0310692526,
       -0.0113688242, 0.0208504815, 0.0428204052, 0.0084662782,
       0.0797150135, 0.0618159622, 0.00357179018, -0.0366827883,
       0.00945723522, -0.030073341, -0.00973412022, 0.0207995158,
       0.0540543497, 0.043093577, 0.0836005509, 0.03155265,
       -0.0442460254, 0.0314176306, 0.0523948558, 0.0399379954,
       -0.0227606297, -0.0016297478, 0.0373333767, -0.00302785123,
       -0.0411733948, -0.0353585668, 0.0306548774, -0.0434272215,
       -0.0434627868, -0.0149208549, 0.0234063696, 0.0223937165,
       0.0267361458, 0.0180679727, -0.011642715, 0.0378721133,
       0.00525421137, -0.0148746409, -0.0634966642, -0.036442928,
       -0.0227912161, 0.0520518757, 0.0189250559, -0.0192421768,
       0.00263143121, 0.0958370343, 0.113786481, 0.0509151667,
       -0.0285130404, -0.0537851602, -0.0340119191, -0.022147214,
       -0.0520749241, -0.0163621176, -0.0434490331, -0.0050421576,
       0.00954602472, -0.000936493161, -0.0492016375, -0.00260695745,
       0.00957410783, -0.000892034965, 0.0246098544, 0.0718863234,
       0.115087487, 0.0672271699, -0.0396017507, -0.0762553588,
       -0.0602688007, -0.0449468829, -0.0444176532, 0.0152367773,
       -0.0287463944, 0.0344190523, 0.0540352687, -0.0165487453,
       -0.0236967932, -0.00429314515, -0.00917575508, -0.0257128663,
       -0.0364726186, -0.0720087513, -0.0512604974, 0.0159924179,
       0.000141919765, -0.00521133002, 0.00116923393, -0.0182117466,
       -0.01047232, -0.00408218661, -0.0409874506, -0.058256004,
       0.00762108341, -0.0124497041, -0.039013505, -0.00872704573,
       -0.0119268531, -0.00898889359, 0.00984815601, -0.01659072,
       -0.00707514025, 0.0688529387, 0.042723015, -0.0213305987,
       0.021983033, 0.00835170038, -0.00492851622, 0.0150251957,
       -0.0378738008, -0.0381832197, 0.034019731, -0.0162966773,
       -0.0215652231, -0.0117598092, -0.0352009647, -0.0334957466,
       -0.0310518816, -0.0179744791, -0.0582520477, 0.004191746,
       0.00645751925, -0.00242887135, -0.0137655493, -0.00619666511,
       -0.0339804031, -0.0285261329, -0.0075634988, -0.00284504378,
       0.0156928767, 0.021608999, -0.000396066491, 0.0288323518,
       -0.00426831795, -0.00875360519, -0.0221839789, -0.0306994226,
       -0.0268960819, 0.0744461194, 0.00980476569, -0.00947931688,
       0.0264077932, 0.0208707079, -0.00169791817, -0.0290114488,
       -0.0203404948, 0.017886281, 0.0814746246, 0.0111011071,
       -0.015884541, 0.00888942182, 0.0334784165, 0.00242846529,
       0.0010134324, -0.000219584399, -0.0013875101, 0.0167624671,
       -0.00222991803, -0.0527738705, -0.00919095706, -0.021940805,
       -0.0196508449, -0.0219422877, -0.0367245115, -0.025895467,
       -0.00484885881, -0.0101835858, 0.0315136164, 0.0408056229,
       0.0208163466, -0.0129828183, -0.0300695263, -0.0260435678,
       0.047829967, 0.0977807194, 0.0465482362, 0.0196994189,
       0.0221970063, -0.00670683943, -0.0446587801, -0.0357761681,
       -0.0471744537, -0.0119964052, 0.0832306817, 0.0410295017,
       -0.0604655556, -0.0107439877, -0.016990684, -7.72157146e-05,
       -0.00697680051, -0.022488419, -0.032640446, -0.0162604842,
       -0.0179158319, -0.0191797558, 0.00618563686, -0.0290097408,
       -0.00611913996, 0.0301369522, -0.0170617998, -0.0131364204,
       0.0217021033, -0.0215160251, 0.0198396929, 0.0310918242,
       0.00843850523, -0.0112444889, -0.0093589006, 0.000190139544,
       -0.0152448574, 0.0689982101, 0.0394318141, 0.0507556796,
       0.0716114864, 0.027534578, 0.0341050588, 0.0233040396,
       -0.0150268376, 0.00103645795, 0.0534685552, 0.0623756051,
       0.00810831133, 0.036901895, -0.028698802, -0.00717087835,
       0.00258776173, -0.0186729301, -0.018968232, 0.013345289,
       -0.0405279472, 0.03009158, 0.0139635764, -0.0555596128,
       -0.00819310267, 0.0015411448, -0.0147520825, -0.0348995179,
       -0.00816348847, -0.0253575891, 0.0596584044, 0.05970167,
       -0.00496597122, 0.0322768912, 0.00923603307, -0.0242144801,
       -0.0251980871, 0.0195609052, 0.0175198223, 0.0324878357,
       0.0193725731, -0.0358364657, 0.0140626673, 0.0133766495,
       -0.0246838666, -0.0405429602, -0.00576183153, -0.00343597261,
       0.0275732651, 0.0181317572, -0.0270617791, -0.0162487514,
       -0.0138132805, -0.00392725458, -0.0265901722, 0.00318039022,
       0.0241976026, -0.0101202177, -0.00501686707, -0.0179547872,
       -0.00104439002, -0.0445773974, -0.0285855811, -0.00489418488,
       0.0119270906, 0.0186132826, 0.0384686999, -0.000460991258,
       -0.0380772166, -0.0363863148, -0.0038621698, -0.00087897724,
       -0.00679218955, -0.00819975045, -0.0204653982, 0.0201640632,
       -0.00144020922, -0.0385166369, -0.00794338901, -0.0190007668,
       -0.0280975141, -0.00548631279, 0.00179322844, 0.00663616182,
       -0.00779667171, 0.0207778551, 0.00174118835, 0.0130899763,
       -0.0235351119, -0.0189252123, -0.000180582865, 0.0290699787,
       0.0013092116, 0.0185925849, 0.0145524256, -0.00337419496,
       -0.0458066054, -0.0201290436, -0.0243315157, -0.0285026561,
       0.0338088647, -0.0179759152, -0.00694398256, -0.0174713247,
       -0.0259462129, 0.00815122109, -0.0104088597, -0.0485733263,
       -0.0226165541, 0.00929748826, -0.00648848666, -0.0216821469,
       -0.0462641865, -0.0427760407, -0.0349634774, -0.0338582993,
       -0.0476505086, -0.0394888259, 0.0219760649, -0.00127253728,
       0.00994477049, 0.0268164575, -0.0171647314, -0.0224216804,
       0.0219248757, -0.00405193027, -0.0253943764, 0.0231383238,
       -0.0282359626, 0.0310577676, 0.0397798009, -0.0114449663,
       -0.00744992774, 0.000659582962, -0.00731118582, 0.00633584848,
       0.0526271462, 0.00276581408, -0.0137190148, -0.0363054574,
       -0.0522974096, -0.0243668668, 0.0076193097, -0.0120610604,
       -0.0320759155, -0.0138501637, -0.0381539352, 0.0150304968,
       -0.0156978965, -0.0411108099, -0.0343934, -0.0127165476,
       -0.0419685133, -0.0491894744, -0.0278482791, -0.0387763008,
       0.0663781092, 0.068565093, 0.0220209807, 8.82674431e-05,
       -0.00715385471, 0.0072014546, 0.0579483807, 0.0595862791,
       0.058405377, 0.051443141, 0.0304288901, 0.0133431088,
       0.00315292925, -0.00453846948, -0.00680684438, 0.0551094413,
       0.0558895916, 0.0597164668, 0.0241912752, 0.0175374188,
       -0.00993260369, -0.0426774099, -0.0484268405, -0.0323786214,
       -0.0222049765, 0.0240746699, -0.00686659478, -0.0123566035,
       0.0200251862, -0.000677046948, -0.033050701, -0.0115057025,
       -0.0740838796, -0.0331659988, 0.0242882688, -0.0100228069,
       0.0603344738, 0.038574107, 0.0557870977, 0.114966646,
       0.0659321919, 0.0322780907, 0.0515188724, 0.0499168411,
       0.0638007224, -0.0225263368, -0.0296835899, -0.031209534,
       0.0123328622, -0.00921261404, -0.05464454, -0.0117068458,
       -0.0370375812, -0.0210557114, -0.014047388, 0.018519368,
       0.0334332399, 0.0740403309, 0.0162552707, -0.029674029,
       -0.00218111719, 0.00886003673, -0.0115166493, -0.0679432973,
       -0.0343509354, -0.0306881275, -0.0188708343, -0.0450391471,
       -0.0697751492, -0.034587469, -0.0467692427, -0.0635594651,
       0.00815303158, -0.00905627292, -0.000281546469, 0.026830446,
       -0.0203838963, 0.0192483868, 0.00284963171, -0.00847151875,
       -0.0103897601, -0.00119103584, 0.005781346, -0.0224473085,
       -0.00772133144, -0.0512411743, -0.00684595201, -0.00360103138,
       -0.0212627053, 0.000259564113, -0.00616534939, 0.022120202,
       0.00894723367, 0.0072989529, -0.0257387776, 0.00240513613,
       -0.0084001366, 0.001214055, -0.0208368097, 0.00147611729,
       0.00437578326, 0.0111638829, 0.024129197, -0.0032971648,
       0.010274387, -0.00653500156, 0.000273427868, -0.0157119911,
       0.00125976489, -0.000879017229, -0.00901971199, -0.00533398381,
       -0.00814248342, 0.00664661312, 0.00221397891, -0.013474674,
       0.0236946922, 0.0107871443, -0.00148855092, 0.024077924,
       0.0204510726, 0.00834378507, -0.000382950442, -0.00606056536,
       -0.0143096363, 0.00297667133, 0.00434389757, -0.0112279598,
       -0.000472496205, 0.0237996541, 0.0358197242, 0.0140542174,
       -0.00291729788, 0.000335740333, 0.0253762901, 0.0062508313,
       -0.0104888175, 0.00565514155, 0.0130783869, 0.0186614618,
       0.0285793822, -0.0110127162, -0.0131459506, 0.0262655616,
       0.0188000035, -0.0147488257, 0.0191003121, -0.00621421821,
       -0.0268782061, 0.00676240912, 0.0205899011, -0.00915649999,
       0.00823798124, 0.0245023128, -0.0607986189, -0.0098132994,
       0.0151787801, -0.0208457503, -0.0223426986, -0.0140059404,
       -0.0566114597, 0.0119256098, -0.00872879196, -0.0222332235,
       -0.00720733404, -0.0213791188, -0.0311302021, 0.0315499492,
       0.0178859793, -0.00446128799, -0.00398343289, 0.0296091288,
       -0.0488620289, -0.00168137939, 0.0182612892, 0.00449456787,
       -0.00153102714, -0.0194945857, -0.0453460105, 0.00895073451,
       0.00722052949, -0.0227685701, -0.00922048651, 0.0257572532,
       0.0143580819, 0.0230265819, -0.0169591643, 0.00526181189,
       0.0373324677, 0.00353213027, 0.00372616551, -0.00656729424,
       0.0173409954, -0.00655096723, 0.0229645595, 0.000722931814,
       -0.0168402195, -0.000917441852, -0.00419258978, -0.0156261176,
       0.000310803473, 0.0133696729, -0.00438400824, 0.0163281877,
       -0.0217576362, -0.00728497189, 0.0319508724, -0.0174532123,
       0.0184730869, 0.0149336448, 0.00267088367, 0.00697372016,
       0.0452793166, 0.0339045338, -0.00206751237, -0.00338175008,
       0.00520926993, -0.0164390095, -0.0171071794, 0.0181806833,
       -0.0226909462, 0.0169011671, 0.0185421854, -7.93850177e-06,
       -0.00822675321, -0.00211299281, -0.00945444591, 0.00498488825,
       0.0372886024, -0.010603657, -0.0215771459, -0.0019813606,
       -0.00389531255, -0.0200476106, -0.0106873875, 0.0129171601,
       0.0129055725, -0.00146957743, -0.00658500521, 0.0469467752,
       0.0195884779, -0.00433720648, -0.0259014089, -0.022657413,
       0.00875822734, 0.00658693025, 0.0362864845, 0.0198592748,
       0.0387395695, 0.0324694477, -0.0012549964, -0.0412245244,
       0.0234445315, 0.00344544929, -0.0144862384, -0.00498584891,
       -0.0197516531, -0.0280887745, -0.00250595249, 0.00309855049,
       -0.0221701823, 0.0114656407, -0.0151982615, -0.00301777897,
       -0.0145090558, -0.0117991315, -0.0106831761, 0.00251011946,
       0.007104374, 0.0215991233, 0.00730431033, 0.0238909237,
       -0.0190848317, 0.00883021019, -0.00141447794, 0.00162902276,
       0.0130575364, 0.0134099815, 0.0047505172, 0.011166079,
       0.0108690383, -0.000771054183, 0.0241644979, 0.0180732161,
       0.0392096937, 0.0271806438, 0.0203195959, -0.00149712129,
       0.0027595784, -0.0034803052, -0.000907225593, -0.00381587003,
       0.0092458846, -0.042562414, -0.0398202799, -0.00525108073,
       0.00258408603, 0.0172321368, 0.0156462658, -0.00755824381,
       -0.00825419277, -0.00290254294, -0.0328364559, -0.0299020074,
       0.0106837042, -0.00429165177, 0.0316829644, 0.0391046964,
       -0.00648412295, 0.0148270689, 0.0166306794, -0.0144349681,
       -0.026840603, -0.0200854093, 0.00238251872, 0.0378749259,
       0.0367809385, -0.0109406421, 0.00532646151, 0.0142083783,
       -0.00576945581, -0.0376006886, -0.00471004145, 0.0204537846,
       0.0189969633, 0.0152317686, -0.00216683629, 0.00669967011,
       0.0534749217, 0.011259269, -0.0268632434, -0.0166844241,
       -0.00854421966, 0.0216075182, 0.0475809723, 0.00848676916,
       0.0111161536, -0.00537873292, 0.00864189211, -0.0455031097,
       -0.0523675978, -0.0532142706, -0.00442114007, -0.00411118614,
       -0.0158778895, -0.0170635786, 0.061224144, 0.0274132881,
       -0.00641827844, 0.0100724213, -0.00394812552, 0.0275522284,
       0.00859255716, 0.0127956197, -0.0257104039, 0.003274624,
       0.00628322363, -0.0103661101, 0.00136033469, -0.0045134956,
       -0.00265794341, -0.00690094288, 0.00323914108, -0.00416795257,
       -0.00798336789, 0.0291611832, 0.0402125493, 0.0267392434,
       -0.033240784, -0.023780169, -0.0511951521, -0.0181222372,
       -0.0281614345, 0.0106907459, 0.00822444633, 0.021671094,
       0.0488974154, 0.0109998379, 0.0409400612, 0.0109036341,
       -0.000502756506, -0.0251027551, -0.0388379209, -0.0276233461,
       -0.0423219725, -0.00584693812, 0.00815491099, 0.0277173184,
       0.0112879453, 0.00581959356, 0.00614557741, -0.0100599825,
       -0.0254375357, -0.0257691909, 0.0162608847, 0.0459865294,
       -0.049068749, -0.0123493699, -0.0169398766, 0.00394282211,
       -0.00688150432, -0.0227638409, -0.0278302431, 0.0702081397,
       0.0582670979, -0.0522648133, -0.00953392219, -0.0140796481,
       0.0144453095, -0.000598028244, -0.0315078348, -0.0699206963,
       0.0146139441, 0.000589964562, -0.0147902016, -0.0148889776,
       0.011932279, 0.0313432924, -0.00934703927, -0.0267792121,
       -0.0264479071, 0.048353523, 0.0505827516, -0.0282357056,
       -0.0168172903, -0.0138046863, 0.0134605216, -0.000447657832,
       -0.0342068821, -0.0406497829, 0.0226692781, 0.0125402138,
       -0.0120151183, 0.0179315172, 0.0115354983, 0.031386029,
       0.0134570841, -0.00708911568, -0.0112185879, 0.0459419154,
       0.006163368, -0.0449483991, -0.013606892, 0.0167802572,
       0.0220826101, 0.00653936295, -0.0104090739, 0.00604735967,
       0.0218673181, -0.0375662372, 0.00337461731, 0.0118478499,
       -0.0134091228, 0.00952104107, 0.030753104, -0.0145526649,
       -0.0235152505, 0.00499935448, -0.00269049522, -0.0131031135,
       0.00336817605, -0.00453277119, -0.00651768222, 0.00874042138,
       -0.0166269522, -0.0305486713, 0.00421862397, -0.0356151722,
       0.0073546255, 0.0155861089, 0.021718543, 0.00964193791,
       0.0129643381, -0.0169363189, 0.00125739584, 0.0349389128,
       0.0117050596, 0.00763726514, 0.00969932694, 0.0097319046,
       -0.0122605795, 0.00241925055, -0.00600097375, -0.0332187563,
       0.0509862006, 0.0106694298, 0.00785717554, 0.017202178,
       -0.00603646971, -0.0230745859, 0.0232376792, -0.0228058677,
       -0.036252927, -0.015195501, -0.0259437263, 0.0249627754,
       0.00182861474, -0.0020605647, -0.0061423406, 0.0266000852,
       -0.0223038234, -0.0257986747, -0.0104750553, -0.00659644464,
       -0.00153926306, 0.0174487028, 0.00558543392, 0.00551914703,
       -0.000830080884, 0.0191028807, -0.0174203422, 0.0478208736,
       0.0284220092, 0.0137080783, 0.0220152978, 0.0144322738,
       0.0464784503, 0.0205540061, -0.00436689705, -0.0159345362,
       0.0161812138, 0.0113918614, 0.0308438018, -0.0145437997,
       -0.00673650345, -0.000253947801, -0.0206448734, 0.00792965759,
       -0.0161458179, -0.0284897182, 0.0149276899, -0.00315601262,
       -0.0109635461, -0.0130815124, -0.0151553284, -0.0126747517,
       -0.000756730151, 0.00505569577, -0.026306415, -0.00751597155,
       0.0322753415, 0.0397760533, 0.0181325767, 0.0642965809,
       0.0333941095, 0.0255430602, -0.0354839414, 0.00905772205,
       0.00597761758, -0.00620138645, -0.0137781426, -0.0300143398,
       0.0195849035, 0.0219943393, 0.0218656715, -0.0127514722,
       0.00811672863, -0.0429211259, 0.000912984891, -0.00593090476,
       -0.0165194403, 0.00341209536, -0.0208824705, 0.0210684836,
       -0.00169320835, -0.0272337403, -0.0292943101, -0.00964933354,
       -0.0184999183, -0.0273297653, -0.0147726573, 0.00940341968,
       0.00752509292, -0.000796450011, -0.0216739997, -0.0224505551,
       -0.00611245539, -0.0114900405, -0.00879965629, 0.00411545811,
       0.0587133318, 0.0414654203, 0.0141096031, 0.0336873829,
       -0.013421773, -0.00377145526, -0.00507382024, -0.0244441517,
       0.0251538772, -0.00173523615, 0.00195848593, 0.00466975803,
       0.0559102185, 0.0100452323, -0.0278929546, -0.00598808704,
       -0.00156755128, 0.0172329117, 0.0223653074, 0.0209524948,
       -0.0101345656, -0.0256814994, -0.0215102248, -0.0339578129,
       0.0113052735, -0.022513289, 0.0164759681, -0.0443422608,
       -0.0252109244, -0.0198042281, -0.00994991511, -0.00968994945,
       0.00983208604, -0.00732740527, -0.00854154211, 0.056822516,
       0.0300607346, -0.00682556909, 0.0130997514, 0.0523748845,
       0.0421847515, -0.00734559353, -0.036852546, -0.0110187354,
       0.0165820289, 0.0319343284, -0.00398456398, -0.0136210723,
       0.0446523204, 0.0224855468, -0.0180713627, 0.0114919478,
       -0.0170761831, 0.0357194915, -0.012767382, -0.0288618971,
       -0.0185064059, 0.00896217767, 0.00178703654, -0.0355085209,
       -0.0320920497, -0.0179009158, 0.00837812759, -0.00600047084,
       -0.0301146451, -0.029039437, -0.00814035628, -0.0105828028,
       -0.0324922577, -0.0388011038, -0.0223902185, 0.0439003557,
       0.0568297617, 0.0358035378, -0.00834426843, 0.00296222093,
       -0.00068033766, -0.0157239549, 0.000493972853, 0.00232723169,
       0.0224559065, 0.040084362, 0.0268747117, -0.000885574962,
       -0.010166659, -0.00663266797, -0.0378553383, -0.038262412,
       -0.00503655896, 0.0176709462, 0.0339752883, 0.0130212093,
       -0.0230170004, -0.0237920936, -0.0104060303, -0.0535309091,
       -0.0272863749, -0.00533480663, -0.0249105133, -0.0101410085,
       0.00320162904, -0.0154417753, -0.0371422395, -0.0250853952,
       0.0164280254, 0.0375589207, 0.0251314826, 0.0311146509,
       0.0457580052, 0.0473855548, 0.00772598665, 0.0225693807,
       -1.57723953e-05, 0.0141745014, 0.0336600654, 0.0260234606,
       0.0381300077, 0.0192928165, -0.00149698171, 0.00741683925,
       0.038070567, 0.00335006067, -0.018167356, 0.00876857154,
       0.014719503, -0.0165892411, -0.0158929508, 0.00662801741,
       0.0114316558, -0.0198489316, -0.0162880756, 0.00695106294,
       -0.0127421534, -0.0152535066, -0.0341217406, -0.015141787,
       -0.0130549902, 0.00603963155, -0.0104970057, 0.00342163816,
       0.00707700988, 0.0124222618, 0.038338609, 0.0956220403,
       0.0162089486, 0.000201544375, 0.00989280269, 0.000995506998,
       -0.00161366444, -0.0250793826, -0.0133794881, -0.0166762378,
       0.0432603247, 0.0157783665, -0.00117303012, 0.00435116002,
       -0.0209219307, -0.0282566659, 0.0408272296, 0.00379626849,
       -0.0127576962, -0.000503585674, -0.0298736803, -0.0212755166,
       0.00142724183, -0.0203040093, 0.0270643011, 0.012604204,
       0.000304053654, -0.0355502144, -0.0139222806, -0.0185064543,
       -0.0207875688, 0.0124572944, -0.0224049706, 0.0205030106,
       0.00572405569, 0.0191907547, 0.00818588398, 0.0116029978,
       -0.0195324775, 0.0141729368, 0.00658323616, 0.00625781948,
       0.00113904849, -0.000592613535, -0.00039587717, 0.0155970613,
       0.0041339267, -0.0126084005, -0.00316895545, -0.00249127694,
       -0.0108618326, -0.0229411274, -0.0146390628, -0.00161466573,
       -0.0139274523, 0.003585445, 0.00680866325, 0.0164769161,
       0.0135647468, 0.000688475673, 0.0190085676, -0.00533685507,
       -0.00396650564, 0.0104740243, 0.019659644, 0.0169704445,
       0.0161985196, -0.000749637256, -0.014160132, 0.0103239026,
       -0.0130022066, 0.000403463055, 0.000628618756, 0.00321522355,
       -0.0234114211, 0.022932671, 0.0297813229, -0.00791666284,
       -0.0109666977, -0.0124134766, 0.00552114937, -0.0083995508,
       -0.00793570653, -0.0227838587, 0.0194378216, 0.00894767512,
       -0.0162824653, 0.000531090423, 0.0125667704, 0.00961350929,
       0.0135351811, 0.0221408326, 0.00873785093, 0.0628646165,
       0.0210107435, -0.00648283865, 0.0153252454, 0.0145064043,
       -0.00587721076, -0.0042854175, 0.0365850888, 0.0284032337,
       0.00818381365, 0.0219196379, -0.0461145677, 0.017682163,
       -0.0191541277, -0.0171683785, -0.0193214864, -0.020676028,
       -0.0330442339, 0.0304573718, 0.00811135769, -0.00675527938,
       -0.00364299491, 0.0427473821, -0.0292732846, -0.0175781492,
       0.0133015849, -0.00837614853, -0.000495428802, -0.0103517361,
       -0.00085524848, 0.0303063355, -0.0115991719, -0.0147430524,
       -0.00606419239, 0.0166089386, -0.00431181258, 0.00534764165,
       0.00242734887, -0.0320049003, 0.00455471221, 0.0335362069,
       0.000638189726, 0.0298697893, 0.0308975838, 0.00128385169,
       0.0386411659, 0.0308955349, -0.00351321325, 0.0511651486,
       0.00354104955, 0.0054293992, -0.00539650396, -0.0139933489,
       -0.0209750105, -0.020130476, -0.026155917, -0.00757903373,
       0.0268630385, -0.00330293458, 0.0144673362, 0.0374075882,
       0.0069458927, 0.0301334374, 0.00823222287, -0.00491636759,
       0.0127115594, 0.00534725236, -0.0261744428, -0.0107872738,
       0.0141722728, 0.0161761194, -0.0349294022, 0.0135825016,
       -0.0089363642, -0.0125658549, -0.0130424965, 0.00969462376,
       0.0161027946, 0.0164749082, 0.00365847163, -0.000601954525,
       -0.0114381546, -0.0215074886, 0.00280477782, -0.0164403915,
       0.0120405126, 0.00230709766, 0.00387212192, -0.0210941117,
       0.00146868557, 0.014271223, 0.0042022001, 0.00191360095,
       0.00724068144, -0.0219434872, 0.00821658503, 0.0101264622,
       0.00724859117, 0.0134245437, 0.0319747813, 0.0293299109,
       -0.00179016124, -0.00943412539, 0.0357316434, 0.0184202157,
       -0.00940515101, -0.00404646713, -0.0118415803, 0.00367248082,
       -0.0171566904, -0.0175953489, 0.00520019606, -0.0083490368,
       -0.00336571201, -0.020456152, -8.23977825e-06, 0.010730939,
       0.0364602357, 0.00200437079, -0.0199033394, -0.0261363313,
       -0.0132738575, 0.0110504692, -0.00537663372, 0.0134793092,
       -0.013430858, -0.000363441737, -0.000830429257, -0.00630553346,
       0.00456597051, -0.00689200358, 0.0141600352, 0.00356709748,
       0.0209548902, -0.00498954207, 0.0299484413, 0.0183174331,
       0.000235134314, -0.00520538259, -0.021921156, -0.0135469651,
       0.00760462182, 0.00668475404, -0.0103243254, 0.022256976,
       0.018282257, 0.00405708142, -0.0414144993, -0.0166314151,
       -0.0104750022, 0.00192183151, 0.0304777753, 0.0069087469,
       0.0421448275, 0.0301384404, 0.0104543464, -0.0161927734,
       -0.00628004968, 0.012089638, -0.0089020459, -0.00584454974,
       -0.0280017573, 0.00659384392, 0.0125116343, 0.00220060279,
       0.00657171709, -0.000215657477, 0.0030340224, -0.0370098203,
       -0.00951100513, 0.00225582113, 0.00696040783, 0.00908034574,
       -0.00376529666, 0.0359391905, -0.00314645236, -0.0354715139,
       -0.0146828024, 0.00394030893, -0.0169126447, 0.00680134073,
       0.0101099648, 0.0106187072, 0.0112581868, -0.0250661913,
       0.00895144045, 0.0110009937, 0.0134119783, 0.0234363601,
       0.0018016299, 0.0102645028, 0.021163715, 0.0160873272,
       0.00937748328, -0.00608972879, -0.0295494106, -0.00925793126,
       0.0207498707, 0.00961717684, -0.00341239595, -0.0057449392,
       0.0134654017, -0.00694086496, -0.0183881726, -0.00279297493,
       0.0049125175, -0.0171008203, 0.0108132632, -0.012220826,
       -0.000922993175, 0.0111346617, -0.00750947837, 0.0255688298,
       -0.00454985257, 0.0168396868, 0.0193044692, 0.00868983939,
       0.00230721664, -0.00190028548, 0.00285419659, -0.0013838507,
       -0.0170657653, -0.0228735879, 0.00189660105, 0.0230386872,
       0.0284896921, -0.00223183911, 0.00778823718, 0.0286445525,
       0.00509604905, -0.00202425104, -0.00503080618, 0.00444089994,
       -0.0300015174, -0.00617129868, -0.0316796601, 0.0038493264,
       0.0187681597, -0.0231207777, 0.00832048245, -0.00382493227,
       0.0254449602, -0.0528465807, -0.0328468382, -0.0353662111,
       -0.0213754289, -0.0309058744, -0.00952691585, -0.0185494963,
       -0.0142346593, 0.0138082085, 0.0121171288, 0.025789367,
       0.0195375755, 0.0301634092, 0.00797841605, -0.00084467791,
       -0.0147014633, -0.023752233, 0.0117104929, 0.00202813232,
       0.00777279586, 0.0145590818, 0.0137729906, -0.00998419989,
       -0.0129860407, 0.0058448608, 0.0211636666, 0.0405707061,
       0.00339125749, 0.00607578456, -0.00471667759, 0.033871796,
       0.00690540113, -0.0152318934, -0.00836753286, -0.000454461522,
       0.0157473274, 0.00358145265, 0.0167839583, -0.0300573967,
       0.0158306155, -0.0052921162, 0.0105134342, -0.00285308505,
       -0.0120642269, 0.00897227321, -0.0286282394, 0.00942022819,
       0.00249116309, 0.0343683735, 0.0050953133, -0.000526287709,
       0.0191930942, -0.0057312008, -0.015723832, 0.0231688898,
       0.0330275819, -0.0044616228, 0.024465695, 0.00741247274,
       0.00853484962, 0.0175393578, -0.0262122303, -0.0069438871,
       0.0117013641, 0.0282136668, -0.0253947768, -0.0229048785,
       0.00636743009, 0.0166053437, 0.0178412739, -0.00440944498,
       -0.0200543012, -0.0266304165, 0.00434847595, -0.025741443,
       -0.0155243604, -0.0150375152, 0.00692517404, 0.001640492,
       -0.0176939908, -0.0225486904, 0.0359395668, 0.0434998684,
       -0.0225022342, -0.0170939323, -0.00856996607, 0.00308922096,
       -0.0316549912, -0.0404298194, -0.0275686309, -0.0128121711,
       0.0180388689, 0.00627452182, -0.00917303748, -0.00900209602,
       0.0206865538, 0.0344461426, 0.0178259574, -0.00196911208,
       0.0067550065, 0.0242511686, -0.00716729276, -0.00249510258,
       0.00897949468, 0.00159613776, 0.0120438617, 0.00216776319,
       0.00621291529, 0.0233252402, 0.0215716362, -0.00867053866,
       0.00317071797, -0.00887326337, 0.0228197016, -0.00602005888,
       -0.0216919389, -0.0127977505, -0.00200846628, 0.0211300235,
       -0.0098119285, 0.0135653941, 0.0314731523, 0.0146554355,
       0.0124859223, 0.00492752483, 0.00205351971, 0.0236633979,
       0.0114019588, -0.0120586436, -0.00278750504, 0.0123628881,
       0.0368551239, 0.0320105366, 0.0260212105, 0.0521930195,
       0.0177490618, 0.0511758514, 0.0101643, 0.0114934733, 0.0380714759,
       0.0130801601, 0.0186629519, 0.00964072347, 0.020646682,
       -0.0611328892, 0.0134244375, 0.00381243671, -0.004629442,
       0.00709271803, 0.00766532356, 0.020009663, 0.0144830681,
       0.0224476978, 0.0200469997, 0.0245684274, -0.0194105636,
       -0.0115694711, 0.00830005202, -0.00262757041, 0.0266952924,
       -0.00415406097, -0.0014921393, -0.0328116082, -0.0278550629,
       -0.0367621481, -0.00582053093, 0.00349661987, 0.0131011065,
       0.0210867468, -3.371204e-05, 0.0116071263, -0.0389511921,
       0.0268923957, 0.0229383986, -0.0120279826, -0.0103463698,
       -0.00562423887, 0.0035845493, 0.0183232576, 0.026494978,
       0.000424805068, -0.00442547631, 0.024625171, -0.0178178921,
       -0.0192754194, 0.0160724297, 0.0366479643, -0.0229717325,
       0.0102199046, -0.0398922712, -0.00947454572, -0.0192758963,
       -0.00291852048, 0.0117186364, 0.0124416547, 0.00701630814,
       -0.00185951137, 0.00309495511, -0.0309410933, -0.0260054637,
       -0.0138243875, 0.00323702954, 0.00752709527, 0.01382221,
       0.0198674668, 0.0167763438, 0.0524358936, 0.0133011295,
       0.0335635431, 0.0284071751, -0.0079872068, 0.0216245092,
       -0.0126631549, 0.0358467661, 0.0161138531, 0.0189633276,
       -0.0589119308, 0.0124050463, 0.0150038581, -0.0183072183,
       -0.00997489877, 0.00575422309, -0.00796989258, 0.0129270554,
       0.0125674848, -0.00857956614, 0.0114239417, -0.000434202957,
       -0.00851520989, 0.00744930003, 0.00587835815, -0.00710447924,
       0.00788937695, -0.0121296151, -0.0288591404, -0.023443725,
       -0.00578826247, -0.00628124364, -0.00508057326, -0.00504843518,
       0.0300684273, 0.00235863659, 0.0339883305, -0.0176885594,
       0.0137668131, -0.0036820427, -0.00764891133, 0.0163128376,
       -0.02203805, -0.0053812284, -0.0054460247, 0.0328391492,
       -0.0038764549, -0.000946226297, 0.0117564946, 0.0318084434,
       0.0120549416, 0.00527282851, -0.014386679, 0.0038930811,
       0.0300804023, 0.00293960446, 0.0177203286, 0.00233798171,
       0.00280922558, 0.00479574269, 0.0134330662, -0.0211582966,
       -0.0110883256, 0.00678536622, -0.00711888121, -0.0156770069,
       -0.00735533098, 0.0218887925, 0.0190977864, 0.0166796502,
       0.00229148916, 0.028854005, 0.0245627388, 0.0127792293,
       0.0247052833, 0.021816114, 0.00764071569, 0.0232900791,
       0.00620971387, 0.00354753807, 0.0208460651, 0.00242517097,
       -0.0305707678, 0.0168340281, 0.00220513484, -0.0148130897,
       -0.00861643907, 0.0111521147, -0.0193972494, -0.0112199606,
       -0.00085472822, 0.00791388936, -0.00241360534, 0.0102796741,
       0.0281447619, 0.0116901221, 0.0162535831, -0.00767911226,
       -0.0396294557, -0.0102748107, -0.0283396412, -0.00829085149,
       -0.00768842036, -0.01270168, -0.00333449594, 0.00375807215,
       0.0161542017, 0.00808000844, 0.00241748756, 0.0204492528,
       0.0506946966, 0.0296625663, 0.0053446684, -0.0187466163,
       0.00247961096, -0.0010180996, -0.00799308717, -0.00499349413,
       -0.00579020008, 0.00863004476, 0.0208172631, 0.0200935584,
       0.00138403708, 0.0149839567, -0.00275708758, -0.0266540293,
       0.0180886444, 0.0121353669, 0.0443377309, -0.000757631322,
       0.000730732805, -0.00937095191, 0.00844760519, 0.0220654141,
       -0.00236222008, 0.0243939906, -0.00857647229, -0.0125279464,
       -0.0292435717, -0.000234673498, -0.00405958621, 0.0168321207,
       0.0138449436, -0.00753653888, 0.0124631412, -0.0163495746,
       -0.00513348961, 0.00536289159, 0.015268893, 0.00931232236,
